{"learner":{"attributes":{"scikit_learn":"{\"_estimator_type\": \"regressor\"}"},"feature_names":["bw","d","fc","longt_ratio","Efl","a_over_d"],"feature_types":["int","int","float","float","int","float"],"gradient_booster":{"model":{"gbtree_model_param":{"num_parallel_tree":"1","num_trees":"100"},"iteration_indptr":[0,1,2,3,4,5,6,7,8,9,10,11,12,13,14,15,16,17,18,19,20,21,22,23,24,25,26,27,28,29,30,31,32,33,34,35,36,37,38,39,40,41,42,43,44,45,46,47,48,49,50,51,52,53,54,55,56,57,58,59,60,61,62,63,64,65,66,67,68,69,70,71,72,73,74,75,76,77,78,79,80,81,82,83,84,85,86,87,88,89,90,91,92,93,94,95,96,97,98,99,100],"tree_info":[0,0,0,0,0,0,0,0,0,0,0,0,0,0,0,0,0,0,0,0,0,0,0,0,0,0,0,0,0,0,0,0,0,0,0,0,0,0,0,0,0,0,0,0,0,0,0,0,0,0,0,0,0,0,0,0,0,0,0,0,0,0,0,0,0,0,0,0,0,0,0,0,0,0,0,0,0,0,0,0,0,0,0,0,0,0,0,0,0,0,0,0,0,0,0,0,0,0,0,0],"trees":[{"base_weights":[-1.5346483E-6,-1.6110294E1,4.5287827E2,-3.480949E1,4.596519E1,1.8884702E2,2.242231E1,2.0861574E1,-4.311913E1,1.6558913E2,1.8172771E1,-6.1495047E0,4.445318E1,-4.717288E1,3.4639366E1,6.2977013E1,2.8097012E1,-1.32248535E1,5.424073E1,-1.543497E1,1.5832825E0,3.1139034E1,2.4867609E1,-5.025047E1,-2.4116156E1,6.0418316E1,-1.11173935E1,-1.2564791E1,9.095035E0,-5.4776917E0,6.602863E1,-5.2528715E0,-7.592949E-1,2.818206E0,-2.6236203E-1,-4.5179445E-1,1.0273102E1,-6.7786975E0,-1.5788823E1,-8.406907E0,-1.8028711E0,4.048206E0,1.9797009E1,-1.8231901E0,7.5081096E0,1.5159761E1,3.0723131E1],"categories":[],"categories_nodes":[],"categories_segments":[],"categories_sizes":[],"default_left":[0,0,0,0,0,0,0,0,0,0,0,0,0,0,0,0,0,0,0,0,0,0,0,0,0,0,0,0,0,0,0,0,0,0,0,0,0,0,0,0,0,0,0,0,0,0,0],"id":0,"left_children":[1,3,5,7,9,-1,-1,11,13,15,17,19,21,23,25,-1,-1,27,29,31,33,35,-1,37,39,41,-1,-1,43,-1,45,-1,-1,-1,-1,-1,-1,-1,-1,-1,-1,-1,-1,-1,-1,-1,-1],"loss_changes":[1.9115525E6,2.9527272E5,5.5400275E5,9.1107766E4,1.9314444E5,0E0,0E0,1.6841465E4,5.5220312E4,1.5419031E4,5.6207293E4,9.5787085E2,4.583748E3,1.02835625E4,1.887352E4,0E0,0E0,1.765116E4,2.086186E4,1.1630737E2,1.6179471E2,1.2677812E3,0E0,8.1528438E3,1.3171348E3,9.396699E2,0E0,0E0,4.0197065E3,0E0,6.1004688E3,0E0,0E0,0E0,0E0,0E0,0E0,0E0,0E0,0E0,0E0,0E0,0E0,0E0,0E0,0E0,0E0],"parents":[2147483647,0,0,1,1,2,2,3,3,4,4,7,7,8,8,9,9,10,10,11,11,12,12,13,13,14,14,17,17,18,18,19,19,20,20,21,21,23,23,24,24,25,25,28,28,30,30],"right_children":[2,4,6,8,10,-1,-1,12,14,16,18,20,22,24,26,-1,-1,28,30,32,34,36,-1,38,40,42,-1,-1,44,-1,46,-1,-1,-1,-1,-1,-1,-1,-1,-1,-1,-1,-1,-1,-1,-1,-1],"split_conditions":[8.89E2,3.26E2,3.05E2,1.9E0,2.1E0,1.8884702E2,2.242231E1,2.24E2,4.57E2,1.5E0,2.54E2,5E4,3.43E1,2.96E2,4.03E1,6.2977013E1,2.8097012E1,2.03E2,3.1E-3,2.16E2,2.66E1,2.32E1,2.4867609E1,2.15E0,4.36E1,9.1E-3,-1.11173935E1,-1.2564791E1,1.21E-2,-5.4776917E0,8.57E2,-5.2528715E0,-7.592949E-1,2.818206E0,-2.6236203E-1,-4.5179445E-1,1.0273102E1,-6.7786975E0,-1.5788823E1,-8.406907E0,-1.8028711E0,4.048206E0,1.9797009E1,-1.8231901E0,7.5081096E0,1.5159761E1,3.0723131E1],"split_indices":[1,1,0,5,5,0,0,1,0,5,0,4,2,1,2,0,0,0,3,1,2,2,0,5,2,3,0,0,3,0,1,0,0,0,0,0,0,0,0,0,0,0,0,0,0,0,0],"split_type":[0,0,0,0,0,0,0,0,0,0,0,0,0,0,0,0,0,0,0,0,0,0,0,0,0,0,0,0,0,0,0,0,0,0,0,0,0,0,0,0,0,0,0,0,0,0,0],"sum_hessian":[2.6E2,2.52E2,8E0,1.94E2,5.8E1,5E0,3E0,2.5E1,1.69E2,1E1,4.8E1,1.2E1,1.3E1,1.61E2,8E0,5E0,5E0,2.6E1,2.2E1,5E0,7E0,1.1E1,2E0,1.41E2,2E1,6E0,2E0,1.1E1,1.5E1,3E0,1.9E1,4E0,1E0,1E0,6E0,1E0,1E1,1.2E1,1.29E2,1.6E1,4E0,1E0,5E0,8E0,7E0,1.5E1,4E0],"tree_param":{"num_deleted":"0","num_feature":"6","num_nodes":"47","size_leaf_vector":"1"}},{"base_weights":[1.3296996E0,-1.0740517E1,3.4048914E2,-2.4309294E1,3.4287483E1,1.4163525E2,5.7924297E1,1.5804354E1,-3.0301325E1,1.2419183E2,1.340513E1,3.9848592E0,2.0513145E1,-4.5705266E0,3.3595005E1,-3.3453156E1,2.3473269E1,1.5744252E2,2.1072756E1,-8.5805815E-1,5.74548E1,-1.1806509E1,1.4277763E0,2.4123066E1,2.3808432E1,-4.0573933E1,-2.51581E1,4.0458977E1,-8.893914E0,1.2766654E1,5.1572647E1,-9.109473E0,1.2287878E1,3.0856897E1,7.204517E1,-4.5357966E0,-1.036177E0,2.3954751E0,-1.9489813E-1,-3.8402483E-1,7.801745E0,-1.3154965E1,-1.0224913E1,-2.7340221E0,-8.969588E0,5.665295E-1,1.37097845E1,-4.334018E0,5.706178E0,2.0656557E0,1.2336363E1,5.6047373E0,2.3347565E1],"categories":[],"categories_nodes":[],"categories_segments":[],"categories_sizes":[],"default_left":[0,0,0,0,0,0,0,0,0,0,0,0,0,0,0,0,0,0,0,0,0,0,0,0,0,0,0,0,0,0,0,0,0,0,0,0,0,0,0,0,0,0,0,0,0,0,0,0,0,0,0,0,0],"id":1,"left_children":[1,3,5,7,9,-1,11,13,15,17,19,-1,-1,21,23,25,27,29,-1,31,33,35,37,-1,39,41,43,45,-1,-1,-1,-1,47,49,51,-1,-1,-1,-1,-1,-1,-1,-1,-1,-1,-1,-1,-1,-1,-1,-1,-1,-1],"loss_changes":[1.0721199E6,1.5541016E5,3.073948E5,4.734953E4,1.0910264E5,0E0,9.582783E2,9.578089E3,2.9598281E4,8.673203E3,3.0835443E4,0E0,0E0,5.81104E2,4.4998047E3,8.489047E3,1.0222211E4,2.6562656E3,0E0,1.5113138E4,2.433793E3,1.1380231E2,1.1416383E2,0E0,7.499678E2,3.1289062E2,5.584168E3,1.5306709E3,0E0,0E0,0E0,0E0,5.1346914E3,1.1931572E3,7.0510547E2,0E0,0E0,0E0,0E0,0E0,0E0,0E0,0E0,0E0,0E0,0E0,0E0,0E0,0E0,0E0,0E0,0E0,0E0],"parents":[2147483647,0,0,1,1,2,2,3,3,4,4,6,6,7,7,8,8,9,9,10,10,13,13,14,14,15,15,16,16,17,17,19,19,20,20,21,21,22,22,24,24,25,25,26,26,27,27,32,32,33,33,34,34],"right_children":[2,4,6,8,10,-1,12,14,16,18,20,-1,-1,22,24,26,28,30,-1,32,34,36,38,-1,40,42,44,46,-1,-1,-1,-1,48,50,52,-1,-1,-1,-1,-1,-1,-1,-1,-1,-1,-1,-1,-1,-1,-1,-1,-1,-1],"split_conditions":[8.89E2,3.26E2,3.05E2,1.9E0,2.1E0,1.4163525E2,4.57E2,2.24E2,4.5E2,1.5E0,3.01E2,3.9848592E0,2.0513145E1,5E4,1.3E0,2.24E2,4.03E1,1.52E2,2.1072756E1,2.03E2,4.1E2,6.7E-3,2.66E1,2.4123066E1,2.32E1,2.03E2,2.54E0,4.57E2,-8.893914E0,1.2766654E1,5.1572647E1,-9.109473E0,3.6E-3,9.9E-3,2.96E1,-4.5357966E0,-1.036177E0,2.3954751E0,-1.9489813E-1,-3.8402483E-1,7.801745E0,-1.3154965E1,-1.0224913E1,-2.7340221E0,-8.969588E0,5.665295E-1,1.37097845E1,-4.334018E0,5.706178E0,2.0656557E0,1.2336363E1,5.6047373E0,2.3347565E1],"split_indices":[1,1,0,5,5,0,0,1,0,5,0,0,0,4,5,1,2,0,0,0,1,3,2,0,2,0,5,0,0,0,0,0,3,3,2,0,0,0,0,0,0,0,0,0,0,0,0,0,0,0,0,0,0],"split_type":[0,0,0,0,0,0,0,0,0,0,0,0,0,0,0,0,0,0,0,0,0,0,0,0,0,0,0,0,0,0,0,0,0,0,0,0,0,0,0,0,0,0,0,0,0,0,0,0,0,0,0,0,0],"sum_hessian":[2.6E2,2.52E2,8E0,1.94E2,5.8E1,5E0,3E0,2.5E1,1.69E2,1E1,4.8E1,1E0,2E0,1.2E1,1.3E1,1.6E2,9E0,5E0,5E0,3.7E1,1.1E1,5E0,7E0,1E0,1.2E1,8.4E1,7.6E1,7E0,2E0,1E0,4E0,1.1E1,2.6E1,5E0,6E0,3E0,2E0,1E0,6E0,1E0,1.1E1,5.2E1,3.2E1,1.8E1,5.8E1,1E0,6E0,5E0,2.1E1,2E0,3E0,1E0,5E0],"tree_param":{"num_deleted":"0","num_feature":"6","num_nodes":"53","size_leaf_vector":"1"}},{"base_weights":[2.0251606E0,-7.046039E0,2.5680164E2,8.178521E1,-1.1038211E1,3.5408813E2,4.667151E1,7.468419E0,1.23185036E2,-1.8388367E1,1.5027858E1,1.1673139E2,2.6850866E1,3.387131E0,1.6410517E1,-8.32993E0,6.233189E0,1.0851657E1,3.9497543E1,1.2126137E0,-2.251604E1,4.978147E0,5.386053E1,-4.8997423E-1,-3.2584946E0,-1.1470101E1,9.610014E0,-2.5031849E1,1.6969526E1,-5.4096565E0,3.6633343E1,3.673787E0,1.7039219E1,-8.4261495E-1,-5.9190726E0,-1.9068903E0,5.977316E0,-8.044684E0,-3.6824908E0,9.031748E0,-7.1151314E0,1.0413653E1,-2.700608E0,6.8014474E0,1.6619616E1],"categories":[],"categories_nodes":[],"categories_segments":[],"categories_sizes":[],"default_left":[0,0,0,0,0,0,0,0,0,0,0,0,0,0,0,0,0,0,0,0,0,0,0,0,0,0,0,0,0,0,0,0,0,0,0,0,0,0,0,0,0,0,0,0,0],"id":2,"left_children":[1,3,5,7,9,11,13,15,17,19,21,-1,-1,-1,-1,23,-1,-1,-1,25,27,29,31,-1,-1,33,35,37,39,41,43,-1,-1,-1,-1,-1,-1,-1,-1,-1,-1,-1,-1,-1,-1],"loss_changes":[6.0501394E5,9.062405E4,1.6745962E5,3.292372E4,4.683262E4,2.0763062E4,5.1886426E2,1.2243647E3,3.9871094E2,1.5399531E4,2.0805758E4,0E0,0E0,0E0,0E0,3.312259E1,0E0,0E0,0E0,3.7312905E3,1.6020859E4,1.4666605E4,6.4883984E2,0E0,0E0,9.4620276E2,3.5849775E3,3.0386328E3,6.0587393E3,5.212985E3,1.6260215E3,0E0,0E0,0E0,0E0,0E0,0E0,0E0,0E0,0E0,0E0,0E0,0E0,0E0,0E0],"parents":[2147483647,0,0,1,1,2,2,3,3,4,4,5,5,6,6,7,7,8,8,9,9,10,10,15,15,19,19,20,20,21,21,22,22,25,25,26,26,27,27,28,28,29,29,30,30],"right_children":[2,4,6,8,10,12,14,16,18,20,22,-1,-1,-1,-1,24,-1,-1,-1,26,28,30,32,-1,-1,34,36,38,40,42,44,-1,-1,-1,-1,-1,-1,-1,-1,-1,-1,-1,-1,-1,-1],"split_conditions":[8.89E2,1.5E0,3.05E2,2.53E2,3.26E2,1.111E3,4.57E2,2.24E2,1.52E2,2.33E0,1.9E-2,1.1673139E2,2.6850866E1,3.387131E0,1.6410517E1,1.52E2,6.233189E0,1.0851657E1,3.9497543E1,1.52E2,4.5E2,5.01E2,3.6E1,-4.8997423E-1,-3.2584946E0,1.9E0,3.9E-3,2.96E2,4.03E1,1.7E0,4.2E2,3.673787E0,1.7039219E1,-8.4261495E-1,-5.9190726E0,-1.9068903E0,5.977316E0,-8.044684E0,-3.6824908E0,9.031748E0,-7.1151314E0,1.0413653E1,-2.700608E0,6.8014474E0,1.6619616E1],"split_indices":[1,5,0,1,1,1,0,1,0,5,3,0,0,0,0,0,0,0,0,0,0,1,2,0,0,5,3,1,2,5,0,0,0,0,0,0,0,0,0,0,0,0,0,0,0],"split_type":[0,0,0,0,0,0,0,0,0,0,0,0,0,0,0,0,0,0,0,0,0,0,0,0,0,0,0,0,0,0,0,0,0,0,0,0,0,0,0,0,0,0,0,0,0],"sum_hessian":[2.6E2,2.52E2,8E0,1E1,2.42E2,5E0,3E0,4E0,6E0,1.89E2,5.3E1,4E0,1E0,1E0,2E0,2E0,2E0,1E0,5E0,3.3E1,1.56E2,4.3E1,1E1,1E0,1E0,1.3E1,2E1,1.47E2,9E0,3.3E1,1E1,1E0,9E0,7E0,6E0,8E0,1.2E1,1.28E2,1.9E1,7E0,2E0,2E0,3.1E1,7E0,3E0],"tree_param":{"num_deleted":"0","num_feature":"6","num_nodes":"45","size_leaf_vector":"1"}},{"base_weights":[2.396766E0,-4.5678825E0,1.9791446E2,6.205273E1,-7.5648327E0,2.7179205E2,3.7619465E1,5.7248354E0,2.802668E1,-1.2937655E1,1.1479632E1,8.871585E1,2.2823236E1,2.8790612E0,1.3128412E1,-7.080442E0,4.9865503E0,6.5415484E-1,-1.5904166E1,-1.9539001E1,1.9869026E1,-4.1647798E-1,-2.769721E0,-8.162812E0,6.9208384E0,-1.7618748E1,1.4058302E1,-5.4247284E0,-6.5458155E0,-7.469513E0,2.4504183E1,9.140758E-2,-3.72811E0,-1.3983861E0,4.322058E0,-7.005282E0,-4.0669155E0,-4.254206E0,9.162374E0,3.5443613E-1,-2.795564E0,-2.5753624E0,-1.16901405E-1,5.235729E0,1.1875612E1],"categories":[],"categories_nodes":[],"categories_segments":[],"categories_sizes":[],"default_left":[0,0,0,0,0,0,0,0,0,0,0,0,0,0,0,0,0,0,0,0,0,0,0,0,0,0,0,0,0,0,0,0,0,0,0,0,0,0,0,0,0,0,0,0,0],"id":3,"left_children":[1,3,5,7,9,11,13,15,-1,17,19,-1,-1,-1,-1,21,-1,23,25,27,29,-1,-1,31,33,35,37,39,-1,41,43,-1,-1,-1,-1,-1,-1,-1,-1,-1,-1,-1,-1,-1,-1],"loss_changes":[3.5631088E5,5.0983055E4,9.635522E4,1.890195E4,2.5012895E4,5.6000938E3,2.6847656E2,8.1538525E2,0E0,7.671248E3,1.4440509E4,0E0,0E0,0E0,0E0,2.3931091E1,0E0,1.9903535E3,8.261895E3,2.678667E2,5.631924E3,0E0,0E0,5.4539606E2,1.8879392E3,3.1298086E3,4.6222505E3,8.817925E1,0E0,5.191443E1,3.2440469E3,0E0,0E0,0E0,0E0,0E0,0E0,0E0,0E0,0E0,0E0,0E0,0E0,0E0,0E0],"parents":[2147483647,0,0,1,1,2,2,3,3,4,4,5,5,6,6,7,7,9,9,10,10,15,15,17,17,18,18,19,19,20,20,23,23,24,24,25,25,26,26,27,27,29,29,30,30],"right_children":[2,4,6,8,10,12,14,16,-1,18,20,-1,-1,-1,-1,22,-1,24,26,28,30,-1,-1,32,34,36,38,40,-1,42,44,-1,-1,-1,-1,-1,-1,-1,-1,-1,-1,-1,-1,-1,-1],"split_conditions":[8.89E2,1.5E0,3.05E2,2.53E2,3.26E2,1.111E3,4.57E2,2.24E2,2.802668E1,2.4E0,2.03E2,8.871585E1,2.2823236E1,2.8790612E0,1.3128412E1,1.52E2,4.9865503E0,1.52E2,4.57E2,4.23E4,4.4E-3,-4.1647798E-1,-2.769721E0,1.54E2,3.9E-3,1.6E2,9.6E-3,3.74E1,-6.5458155E0,5.01E2,1.77E-2,9.140758E-2,-3.72811E0,-1.3983861E0,4.322058E0,-7.005282E0,-4.0669155E0,-4.254206E0,9.162374E0,3.5443613E-1,-2.795564E0,-2.5753624E0,-1.16901405E-1,5.235729E0,1.1875612E1],"split_indices":[1,5,0,1,1,1,0,1,0,5,0,0,0,0,0,0,0,0,0,4,3,0,0,1,3,0,3,2,0,1,3,0,0,0,0,0,0,0,0,0,0,0,0,0,0],"split_type":[0,0,0,0,0,0,0,0,0,0,0,0,0,0,0,0,0,0,0,0,0,0,0,0,0,0,0,0,0,0,0,0,0,0,0,0,0,0,0,0,0,0,0,0,0],"sum_hessian":[2.6E2,2.52E2,8E0,1E1,2.42E2,5E0,3E0,4E0,6E0,1.89E2,5.3E1,4E0,1E0,1E0,2E0,2E0,2E0,3.4E1,1.55E2,1.1E1,4.2E1,1E0,1E0,1.4E1,2E1,1.47E2,8E0,2E0,9E0,6E0,3.6E1,5E0,9E0,8E0,1.2E1,5.9E1,8.8E1,3E0,5E0,1E0,1E0,5E0,1E0,2.6E1,1E1],"tree_param":{"num_deleted":"0","num_feature":"6","num_nodes":"45","size_leaf_vector":"1"}},{"base_weights":[2.2751646E0,-3.0853343E0,1.5271194E2,-6.0539227E0,3.8481773E1,2.0884425E2,3.0335491E1,1.7835161E1,-9.210306E0,6.515788E1,1.3292703E1,8.43617E1,3.0708647E1,2.4472024E0,1.0502728E1,3.713597E0,3.9321796E1,-1.2406654E1,1.835841E0,1.4857247E0,7.305118E1,3.1446774E0,6.843538E0,-5.9629855E0,7.8940506E0,4.4413574E1,1.09391985E1,-1.7324253E1,-9.295891E0,-1.0043406E0,1.8614668E1,2.4372742E1,3.5855165E0,-6.046453E0,9.251856E0,-2.472426E0,-2.8122333E-1,7.568839E-1,4.1219544E0,6.783753E0,1.719958E1,1.3712311E-1,4.7855167E0,-3.5209281E0,-5.9700174E0,-3.8324044E0,-7.689769E-1,-1.1660392E0,5.0814595E0,1.5865632E0,5.9862795E0,-4.386429E-1,-2.282261E0,-9.936562E-2,3.7669864E0],"categories":[],"categories_nodes":[],"categories_segments":[],"categories_sizes":[],"default_left":[0,0,0,0,0,0,0,0,0,0,0,0,0,0,0,0,0,0,0,0,0,0,0,0,0,0,0,0,0,0,0,0,0,0,0,0,0,0,0,0,0,0,0,0,0,0,0,0,0,0,0,0,0,0,0],"id":4,"left_children":[1,3,5,7,9,11,13,15,17,19,21,-1,-1,-1,-1,23,25,27,29,-1,31,33,-1,35,37,39,41,43,45,47,49,-1,-1,51,53,-1,-1,-1,-1,-1,-1,-1,-1,-1,-1,-1,-1,-1,-1,-1,-1,-1,-1,-1,-1],"loss_changes":[2.1094578E5,3.1452059E4,5.5488062E4,1.8034803E4,1.0556969E4,1.744636E4,1.2902661E2,8.349873E3,7.4373164E3,3.4399766E3,8.942638E2,0E0,0E0,0E0,0E0,7.7521716E2,1.1038477E3,2.3324453E3,2.3061316E3,0E0,2.5323984E3,3.9273215E2,0E0,6.0977066E1,3.7351422E2,1.2382871E3,1.5033447E2,6.588203E2,2.3562402E3,2.238016E3,1.9432373E1,0E0,0E0,1.03461685E1,1.308382E2,0E0,0E0,0E0,0E0,0E0,0E0,0E0,0E0,0E0,0E0,0E0,0E0,0E0,0E0,0E0,0E0,0E0,0E0,0E0,0E0],"parents":[2147483647,0,0,1,1,2,2,3,3,4,4,5,5,6,6,7,7,8,8,9,9,10,10,15,15,16,16,17,17,18,18,20,20,21,21,23,23,24,24,25,25,26,26,27,27,28,28,29,29,30,30,33,33,34,34],"right_children":[2,4,6,8,10,12,14,16,18,20,22,-1,-1,-1,-1,24,26,28,30,-1,32,34,-1,36,38,40,42,44,46,48,50,-1,-1,52,54,-1,-1,-1,-1,-1,-1,-1,-1,-1,-1,-1,-1,-1,-1,-1,-1,-1,-1,-1,-1],"split_conditions":[8.89E2,4.96E2,3.05E2,1.78E0,4.2E4,1.097E3,4.57E2,2.53E2,1.7E-2,2.96E1,9.2E-3,8.43617E1,3.0708647E1,2.4472024E0,1.0502728E1,5E4,3.96E1,3.41E1,4.57E2,1.4857247E0,4.13E1,5.94E2,6.843538E0,6.7E-3,5.2E-3,1.24E-2,1.25E-2,2.66E0,7.12E4,1.14E5,3.9E4,2.4372742E1,3.5855165E0,5.01E2,3.71E1,-2.472426E0,-2.8122333E-1,7.568839E-1,4.1219544E0,6.783753E0,1.719958E1,1.3712311E-1,4.7855167E0,-3.5209281E0,-5.9700174E0,-3.8324044E0,-7.689769E-1,-1.1660392E0,5.0814595E0,1.5865632E0,5.9862795E0,-4.386429E-1,-2.282261E0,-9.936562E-2,3.7669864E0],"split_indices":[1,1,0,5,4,1,0,1,3,2,3,0,0,0,0,4,2,2,0,0,2,1,0,3,3,3,3,5,4,4,4,0,0,1,2,0,0,0,0,0,0,0,0,0,0,0,0,0,0,0,0,0,0,0,0],"split_type":[0,0,0,0,0,0,0,0,0,0,0,0,0,0,0,0,0,0,0,0,0,0,0,0,0,0,0,0,0,0,0,0,0,0,0,0,0,0,0,0,0,0,0,0,0,0,0,0,0,0,0,0,0,0,0],"sum_hessian":[2.6E2,2.52E2,8E0,2.36E2,1.6E1,5E0,3E0,2.7E1,2.09E2,7E0,9E0,2E0,3E0,1E0,2E0,1.7E1,1E1,1.62E2,4.7E1,1E0,6E0,5E0,4E0,5E0,1.2E1,8E0,2E0,6.1E1,1.01E2,4.1E1,6E0,5E0,1E0,2E0,3E0,3E0,2E0,7E0,5E0,4E0,4E0,1E0,1E0,2.1E1,4E1,6.6E1,3.5E1,3.6E1,5E0,1E0,5E0,1E0,1E0,1E0,2E0],"tree_param":{"num_deleted":"0","num_feature":"6","num_nodes":"55","size_leaf_vector":"1"}},{"base_weights":[2.3346903E0,-1.9002031E0,1.2112284E2,3.776749E1,-3.6880403E0,1.6536938E2,2.4472324E1,3.9424195E0,5.6532898E1,-1.1212929E1,9.7091824E-1,6.748936E1,2.3799206E1,2.0801218E0,8.402183E0,-5.100489E0,3.5013566E0,3.3229492E1,2.2958284E1,-7.3812823E0,-1.4502954E1,-5.9403014E0,8.242597E0,-3.1182176E-1,-1.9833986E0,1.2402782E1,1.1655579E-1,-8.247101E0,-3.7894568E-1,-1.5828891E1,-5.7289143E0,-7.7877154E0,9.088507E0,-4.381504E0,1.2084548E1,-1.6959804E0,-3.3309813E0,6.947095E-1,-2.0778248E0,-4.880378E0,-1.4096375E0,-8.228925E-1,-2.4087331E0,-3.070224E0,-1.598768E0,5.2519026E0,-4.074783E0,9.7816205E-1,-1.8381848E0,2.5666733E0,7.011192E0],"categories":[],"categories_nodes":[],"categories_segments":[],"categories_sizes":[],"default_left":[0,0,0,0,0,0,0,0,0,0,0,0,0,0,0,0,0,0,0,0,0,0,0,0,0,0,0,0,0,0,0,0,0,0,0,0,0,0,0,0,0,0,0,0,0,0,0,0,0,0,0],"id":5,"left_children":[1,3,5,7,9,11,13,15,17,19,21,-1,-1,-1,-1,23,-1,25,-1,27,29,31,33,-1,-1,-1,-1,35,37,39,41,43,45,47,49,-1,-1,-1,-1,-1,-1,-1,-1,-1,-1,-1,-1,-1,-1,-1,-1],"loss_changes":[1.3152756E5,1.8081889E4,3.444108E4,6.7592764E3,8.530016E3,1.2918344E4,5.3796875E1,4.0898154E2,7.186406E2,1.0653281E3,7.637645E3,0E0,0E0,0E0,0E0,1.1535072E1,0E0,1.3161504E3,0E0,2.696985E2,4.79375E2,2.2364045E3,3.6420361E3,0E0,0E0,0E0,0E0,2.3356738E2,1.2189194E2,1.2879395E2,3.2922333E1,3.6646533E2,1.9553569E3,2.6012192E2,2.0702637E3,0E0,0E0,0E0,0E0,0E0,0E0,0E0,0E0,0E0,0E0,0E0,0E0,0E0,0E0,0E0,0E0],"parents":[2147483647,0,0,1,1,2,2,3,3,4,4,5,5,6,6,7,7,8,8,9,9,10,10,15,15,17,17,19,19,20,20,21,21,22,22,27,27,28,28,29,29,30,30,31,31,32,32,33,33,34,34],"right_children":[2,4,6,8,10,12,14,16,18,20,22,-1,-1,-1,-1,24,-1,26,-1,28,30,32,34,-1,-1,-1,-1,36,38,40,42,44,46,48,50,-1,-1,-1,-1,-1,-1,-1,-1,-1,-1,-1,-1,-1,-1,-1,-1],"split_conditions":[8.89E2,1.5E0,3.05E2,2.53E2,2E2,1.097E3,4.57E2,2.24E2,2.54E2,3.07E0,2.34E2,6.748936E1,2.3799206E1,2.0801218E0,8.402183E0,1.52E2,3.5013566E0,3.96E1,2.2958284E1,1.9E-2,2.96E2,4.57E2,4.4E-3,-3.1182176E-1,-1.9833986E0,1.2402782E1,1.1655579E-1,2.53E2,3.97E1,1.48E5,1.5E2,1.88E2,4.03E1,9.4E4,1.92E-2,-1.6959804E0,-3.3309813E0,6.947095E-1,-2.0778248E0,-4.880378E0,-1.4096375E0,-8.228925E-1,-2.4087331E0,-3.070224E0,-1.598768E0,5.2519026E0,-4.074783E0,9.7816205E-1,-1.8381848E0,2.5666733E0,7.011192E0],"split_indices":[1,5,0,1,0,1,0,1,0,5,1,0,0,0,0,0,0,2,0,3,1,0,3,0,0,0,0,1,2,4,0,1,2,4,3,0,0,0,0,0,0,0,0,0,0,0,0,0,0,0,0],"split_type":[0,0,0,0,0,0,0,0,0,0,0,0,0,0,0,0,0,0,0,0,0,0,0,0,0,0,0,0,0,0,0,0,0,0,0,0,0,0,0,0,0,0,0,0,0,0,0,0,0,0,0],"sum_hessian":[2.6E2,2.52E2,8E0,1E1,2.42E2,5E0,3E0,4E0,6E0,9.2E1,1.5E2,2E0,3E0,1E0,2E0,2E0,2E0,4E0,2E0,4.4E1,4.8E1,7.7E1,7.3E1,1E0,1E0,3E0,1E0,3.9E1,5E0,4.1E1,7E0,6.9E1,8E0,1.7E1,5.6E1,2.2E1,1.7E1,4E0,1E0,3.9E1,2E0,4E0,3E0,3.3E1,3.6E1,6E0,2E0,3E0,1.4E1,4.4E1,1.2E1],"tree_param":{"num_deleted":"0","num_feature":"6","num_nodes":"51","size_leaf_vector":"1"}},{"base_weights":[2.1237428E0,-1.2274617E0,9.609386E1,-3.0539489E0,2.4308123E1,1.3097331E2,1.9751205E1,1.1301873E1,-4.953516E0,1.8366627E1,1.5304788E1,5.399148E1,1.8444384E1,1.7681031E0,6.721747E0,2.576812E0,2.4551802E1,-6.3099723E0,4.473947E0,9.077782E0,2.5943243E1,-4.407447E0,4.887132E0,2.7700289E1,6.922409E0,-9.239171E0,-4.300327E0,-2.2321599E0,9.223906E0,1.6884537E0,4.486244E0,8.7786716E-1,9.2897835E0,-1.5202684E0,-2.6504862E-1,3.865597E-1,2.490497E0,3.9494836E0,1.1008673E1,9.90738E-2,3.0160105E0,-3.73088E0,-2.141382E0,-1.895698E0,2.4226667E-2,-1.1138413E0,4.9719888E-1,1.1783413E0,4.2087097E0,-1.6146944E0,1.9708248E0],"categories":[],"categories_nodes":[],"categories_segments":[],"categories_sizes":[],"default_left":[0,0,0,0,0,0,0,0,0,0,0,0,0,0,0,0,0,0,0,0,0,0,0,0,0,0,0,0,0,0,0,0,0,0,0,0,0,0,0,0,0,0,0,0,0,0,0,0,0,0,0],"id":6,"left_children":[1,3,5,7,9,11,13,15,17,-1,19,-1,-1,-1,-1,21,23,25,27,29,31,33,35,37,39,41,43,45,47,49,-1,-1,-1,-1,-1,-1,-1,-1,-1,-1,-1,-1,-1,-1,-1,-1,-1,-1,-1,-1,-1],"loss_changes":[8.2310266E4,1.1874261E4,2.1378234E4,6.5189365E3,4.7129395E3,9.3650625E3,1.5093018E1,3.1737153E3,2.7136992E3,0E0,7.581787E2,0E0,0E0,0E0,0E0,3.1198553E2,4.18812E2,1.0434111E3,8.806399E2,4.523968E2,4.8742456E2,7.153885E0,1.6132816E2,6.936504E2,5.859929E1,4.083501E2,9.8218823E2,7.526076E1,3.5207178E2,2.4243158E2,0E0,0E0,0E0,0E0,0E0,0E0,0E0,0E0,0E0,0E0,0E0,0E0,0E0,0E0,0E0,0E0,0E0,0E0,0E0,0E0,0E0],"parents":[2147483647,0,0,1,1,2,2,3,3,4,4,5,5,6,6,7,7,8,8,10,10,15,15,16,16,17,17,18,18,19,19,20,20,21,21,22,22,23,23,24,24,25,25,26,26,27,27,28,28,29,29],"right_children":[2,4,6,8,10,12,14,16,18,-1,20,-1,-1,-1,-1,22,24,26,28,30,32,34,36,38,40,42,44,46,48,50,-1,-1,-1,-1,-1,-1,-1,-1,-1,-1,-1,-1,-1,-1,-1,-1,-1,-1,-1,-1,-1],"split_conditions":[8.89E2,4.96E2,3.05E2,1.78E0,1.5E0,1.097E3,4.57E2,2.53E2,1.92E-2,1.8366627E1,4.2E2,5.399148E1,1.8444384E1,1.7681031E0,6.721747E0,4.82E4,3.96E1,1.6E2,2.5E2,9.2E-3,2.96E1,2.16E2,5.2E-3,1.24E-2,1.25E-2,7.7E-3,6.1E4,2.25E2,4.07E4,5.94E2,4.486244E0,8.7786716E-1,9.2897835E0,-1.5202684E0,-2.6504862E-1,3.865597E-1,2.490497E0,3.9494836E0,1.1008673E1,9.90738E-2,3.0160105E0,-3.73088E0,-2.141382E0,-1.895698E0,2.4226667E-2,-1.1138413E0,4.9719888E-1,1.1783413E0,4.2087097E0,-1.6146944E0,1.9708248E0],"split_indices":[1,1,0,5,5,1,0,1,3,0,0,0,0,0,0,4,2,0,0,3,2,1,3,3,3,3,4,1,4,1,0,0,0,0,0,0,0,0,0,0,0,0,0,0,0,0,0,0,0,0,0],"split_type":[0,0,0,0,0,0,0,0,0,0,0,0,0,0,0,0,0,0,0,0,0,0,0,0,0,0,0,0,0,0,0,0,0,0,0,0,0,0,0,0,0,0,0,0,0,0,0,0,0,0,0],"sum_hessian":[2.6E2,2.52E2,8E0,2.36E2,1.6E1,5E0,3E0,2.7E1,2.09E2,2E0,1.4E1,2E0,3E0,1E0,2E0,1.7E1,1E1,1.83E2,2.6E1,1E1,4E0,4E0,1.3E1,8E0,2E0,7.3E1,1.1E2,1.1E1,1.5E1,5E0,5E0,1E0,3E0,3E0,1E0,7E0,6E0,4E0,4E0,1E0,1E0,2.7E1,4.6E1,7.5E1,3.5E1,8E0,3E0,8E0,7E0,2E0,3E0],"tree_param":{"num_deleted":"0","num_feature":"6","num_nodes":"51","size_leaf_vector":"1"}},{"base_weights":[1.9865975E0,-6.633007E-1,7.625745E1,-2.0694447E0,1.8979017E1,1.0375397E2,4.784493E0,8.5957775E0,-3.4816196E0,1.4693299E1,1.1714021E1,4.319319E1,4.764798E1,1.8644224E0,1.8829287E1,-4.2051625E0,7.806308E0,6.794664E0,2.0193802E1,4.2909393E0,1.6198566E1,-1.3261051E0,5.2022953E0,2.1052223E1,5.8840537E0,-7.808243E0,-2.6932204E0,1.1844442E1,-2.8806863E0,1.241272E0,3.3646836E0,7.4618685E-1,7.1995826E0,6.6103446E-1,-7.451773E-1,-2.169304E-2,3.5440888E0,3.0016077E0,8.366592E0,8.4214784E-2,2.5636094E0,-1.8305506E0,-3.5718596E0,-1.1284448E0,9.768248E-1,1.9780899E0,5.8154855E0,-6.859694E-1,2.8320684E0],"categories":[],"categories_nodes":[],"categories_segments":[],"categories_sizes":[],"default_left":[0,0,0,0,0,0,0,0,0,0,0,0,0,0,0,0,0,0,0,0,0,0,0,0,0,0,0,0,0,0,0,0,0,0,0,0,0,0,0,0,0,0,0,0,0,0,0,0,0],"id":7,"left_children":[1,3,5,7,9,11,-1,13,15,-1,17,-1,19,21,23,25,27,29,31,-1,-1,33,35,37,39,41,43,45,-1,47,-1,-1,-1,-1,-1,-1,-1,-1,-1,-1,-1,-1,-1,-1,-1,-1,-1,-1,-1],"loss_changes":[5.1418047E4,7.027117E3,1.3269914E4,3.599422E3,3.1312554E3,6.6803906E3,0E0,1.893685E3,1.7479595E3,0E0,4.885161E2,0E0,7.429004E1,1.9859116E2,1.9266821E2,1.0576052E3,1.0276108E3,2.5614218E2,2.771577E2,0E0,0E0,4.6339043E1,3.147038E2,4.0065283E2,4.2337852E1,3.329319E2,9.083611E2,3.0771423E2,0E0,1.9513315E2,0E0,0E0,0E0,0E0,0E0,0E0,0E0,0E0,0E0,0E0,0E0,0E0,0E0,0E0,0E0,0E0,0E0,0E0,0E0],"parents":[2147483647,0,0,1,1,2,2,3,3,4,4,5,5,7,7,8,8,10,10,12,12,13,13,14,14,15,15,16,16,17,17,18,18,21,21,22,22,23,23,24,24,25,25,26,26,27,27,29,29],"right_children":[2,4,6,8,10,12,-1,14,16,-1,18,-1,20,22,24,26,28,30,32,-1,-1,34,36,38,40,42,44,46,-1,48,-1,-1,-1,-1,-1,-1,-1,-1,-1,-1,-1,-1,-1,-1,-1,-1,-1,-1,-1],"split_conditions":[8.89E2,4.96E2,3.05E2,1.78E0,1.5E0,1.097E3,4.784493E0,2.53E2,4.57E2,1.4693299E1,4.2E2,4.319319E1,1.106E3,2.24E2,3.96E1,6.6E-3,4.3E1,9.2E-3,2.96E1,4.2909393E0,1.6198566E1,1.94E2,5.2E-3,1.24E-2,1.25E-2,3.61E0,1.3E5,4.11E4,-2.8806863E0,5.9E1,3.3646836E0,7.4618685E-1,7.1995826E0,6.6103446E-1,-7.451773E-1,-2.169304E-2,3.5440888E0,3.0016077E0,8.366592E0,8.4214784E-2,2.5636094E0,-1.8305506E0,-3.5718596E0,-1.1284448E0,9.768248E-1,1.9780899E0,5.8154855E0,-6.859694E-1,2.8320684E0],"split_indices":[1,1,0,5,5,1,0,1,0,0,0,0,1,1,2,3,2,3,2,0,0,1,3,3,3,5,4,4,0,2,0,0,0,0,0,0,0,0,0,0,0,0,0,0,0,0,0,0,0],"split_type":[0,0,0,0,0,0,0,0,0,0,0,0,0,0,0,0,0,0,0,0,0,0,0,0,0,0,0,0,0,0,0,0,0,0,0,0,0,0,0,0,0,0,0,0,0,0,0,0,0],"sum_hessian":[2.6E2,2.52E2,8E0,2.36E2,1.6E1,5E0,3E0,2.7E1,2.09E2,2E0,1.4E1,2E0,3E0,1.7E1,1E1,1.97E2,1.2E1,1E1,4E0,1E0,2E0,9E0,8E0,8E0,2E0,5.7E1,1.4E2,1E1,2E0,5E0,5E0,1E0,3E0,2E0,7E0,5E0,3E0,4E0,4E0,1E0,1E0,4.2E1,1.5E1,1.19E2,2.1E1,7E0,3E0,4E0,1E0],"tree_param":{"num_deleted":"0","num_feature":"6","num_nodes":"49","size_leaf_vector":"1"}},{"base_weights":[1.8252171E0,-2.8659084E-1,6.0987682E1,1.9305899E1,-1.1723143E0,3.56708E1,3.9528416E1,2.3761659E0,2.864058E1,-3.5021636E0,2.1943922E0,1.475101E1,1.5870851E1,-3.2435253E0,2.1611407E0,1.0992622E0,9.657783E0,-9.38099E-1,-5.2205086E0,-3.6560268E0,4.875827E0,7.8521353E-1,5.1390224E0,-1.13515094E-1,-1.3460712E0,-2.9918818E0,1.1469538E0,-5.5491166E0,3.406674E0,-5.42815E0,7.854595E-1,2.6956022E0,1.0082598E1,-2.5060675E-1,-1.724309E0,-5.465131E-1,9.681808E-1,-2.0754676E0,-3.14147E-1,-2.0787048E0,2.066188E0,-3.2618523E-1,2.6460228E0,4.6154164E-2,3.8541715E0,1.288938E0,4.3278375E0],"categories":[],"categories_nodes":[],"categories_segments":[],"categories_sizes":[],"default_left":[0,0,0,0,0,0,0,0,0,0,0,0,0,0,0,0,0,0,0,0,0,0,0,0,0,0,0,0,0,0,0,0,0,0,0,0,0,0,0,0,0,0,0,0,0,0,0],"id":8,"left_children":[1,3,5,7,9,11,-1,13,15,17,19,21,-1,23,-1,-1,-1,25,27,29,31,-1,-1,-1,-1,33,35,37,-1,39,41,43,45,-1,-1,-1,-1,-1,-1,-1,-1,-1,-1,-1,-1,-1,-1],"loss_changes":[3.2626758E4,4.413075E3,1.1425895E4,1.6703154E3,1.9137576E3,2.1035547E3,0E0,1.5901482E2,5.0305713E2,6.295592E2,1.5865781E3,9.949744E1,0E0,8.989599E0,0E0,0E0,0E0,2.5608405E2,5.3145825E2,2.5613116E2,7.561046E2,0E0,0E0,0E0,0E0,1.7348825E2,1.9115186E2,5.166677E2,0E0,4.7285022E2,1.600577E2,1.2881721E3,4.4066333E2,0E0,0E0,0E0,0E0,0E0,0E0,0E0,0E0,0E0,0E0,0E0,0E0,0E0,0E0],"parents":[2147483647,0,0,1,1,2,2,3,3,4,4,5,5,7,7,8,8,9,9,10,10,11,11,13,13,17,17,18,18,19,19,20,20,25,25,26,26,27,27,29,29,30,30,31,31,32,32],"right_children":[2,4,6,8,10,12,-1,14,16,18,20,22,-1,24,-1,-1,-1,26,28,30,32,-1,-1,-1,-1,34,36,38,-1,40,42,44,46,-1,-1,-1,-1,-1,-1,-1,-1,-1,-1,-1,-1,-1,-1],"split_conditions":[8.89E2,1.5E0,5E1,2.53E2,2.5E2,4.8E4,3.9528416E1,2.24E2,1.52E2,2.9E0,1.59E2,5.2E-3,1.5870851E1,1.52E2,2.1611407E0,1.0992622E0,9.657783E0,2.26E2,1.92E5,7.42E1,3.01E2,7.8521353E-1,5.1390224E0,-1.13515094E-1,-1.3460712E0,2.4E0,1.52E2,1.43E-2,3.406674E0,1.81E-2,8.2E1,5.9E1,4.08E4,-2.5060675E-1,-1.724309E0,-5.465131E-1,9.681808E-1,-2.0754676E0,-3.14147E-1,-2.0787048E0,2.066188E0,-3.2618523E-1,2.6460228E0,4.6154164E-2,3.8541715E0,1.288938E0,4.3278375E0],"split_indices":[1,5,2,1,0,4,0,1,0,5,1,3,0,0,0,0,0,1,4,2,0,0,0,0,0,5,0,3,0,3,1,2,4,0,0,0,0,0,0,0,0,0,0,0,0,0,0],"split_type":[0,0,0,0,0,0,0,0,0,0,0,0,0,0,0,0,0,0,0,0,0,0,0,0,0,0,0,0,0,0,0,0,0,0,0,0,0,0,0,0,0,0,0,0,0,0,0],"sum_hessian":[2.6E2,2.52E2,8E0,1E1,2.42E2,7E0,1E0,4E0,6E0,1.43E2,9.9E1,4E0,3E0,2E0,2E0,1E0,5E0,5.8E1,8.5E1,3.1E1,6.8E1,1E0,3E0,1E0,1E0,2.9E1,2.9E1,8.4E1,1E0,2.2E1,9E0,4.9E1,1.9E1,1.7E1,1.2E1,1.2E1,1.7E1,6.4E1,2E1,2E1,2E0,8E0,1E0,4E1,9E0,9E0,1E1],"tree_param":{"num_deleted":"0","num_feature":"6","num_nodes":"47","size_leaf_vector":"1"}},{"base_weights":[1.5997602E0,-2.990171E-1,4.478097E1,1.0307941E1,-1.2619916E0,2.6859638E1,3.359915E1,4.215373E0,2.48368E1,-3.7710402E0,1.701999E-2,7.3889923E-1,3.2650925E1,-3.0600166E0,8.886608E0,1.5806626E0,8.308983E0,-3.0221484E0,-3.1058936E0,-5.304291E0,8.508298E-1,5.8325167E0,4.0999695E1,-9.22361E-1,-1.6808312E0,6.7918124E0,4.843037E0,-4.584678E0,-1.318291E0,-5.951879E0,5.6519824E-1,-9.9579287E-1,5.905408E0,1.3968879E1,3.6464999E0,-3.9988673E-1,-6.1293792E-2,1.8221996E0,-7.5069815E-1,-1.0743866E0,-2.597997E0,-8.096396E-1,3.3580786E-1,-1.8378344E0,-4.223465E-1,1.3282013E-2,2.4105722E-1,-6.571859E-1,8.48795E-1,6.799779E-1,4.5419006E0],"categories":[],"categories_nodes":[],"categories_segments":[],"categories_sizes":[],"default_left":[0,0,0,0,0,0,0,0,0,0,0,0,0,0,0,0,0,0,0,0,0,0,0,0,0,0,0,0,0,0,0,0,0,0,0,0,0,0,0,0,0,0,0,0,0,0,0,0,0,0,0],"id":9,"left_children":[1,3,5,7,9,11,-1,13,15,17,19,-1,21,23,25,-1,-1,-1,27,29,31,-1,33,35,-1,-1,37,39,41,43,45,47,49,-1,-1,-1,-1,-1,-1,-1,-1,-1,-1,-1,-1,-1,-1,-1,-1,-1,-1],"loss_changes":[2.1413172E4,2.5767803E3,1.0242439E4,1.7541826E3,7.413667E2,1.33246E3,0E0,5.7095404E2,1.898335E2,2.9570947E2,6.87805E2,0E0,8.5140625E1,3.288095E1,4.464596E2,0E0,0E0,0E0,1.842865E2,8.31853E1,1.2566229E3,0E0,7.590625E1,1.2017941E0,0E0,0E0,9.657585E1,1.2846198E2,1.17437546E2,6.418518E0,3.3687478E-1,4.5866193E2,1.1753478E3,0E0,0E0,0E0,0E0,0E0,0E0,0E0,0E0,0E0,0E0,0E0,0E0,0E0,0E0,0E0,0E0,0E0,0E0],"parents":[2147483647,0,0,1,1,2,2,3,3,4,4,5,5,7,7,8,8,9,9,10,10,12,12,13,13,14,14,18,18,19,19,20,20,22,22,23,23,26,26,27,27,28,28,29,29,30,30,31,31,32,32],"right_children":[2,4,6,8,10,12,-1,14,16,18,20,-1,22,24,26,-1,-1,-1,28,30,32,-1,34,36,-1,-1,38,40,42,44,46,48,50,-1,-1,-1,-1,-1,-1,-1,-1,-1,-1,-1,-1,-1,-1,-1,-1,-1,-1],"split_conditions":[8.83E2,1.7E0,5E1,1.37E-2,1.6E2,4.08E4,3.359915E1,5E4,2.6E2,1.3E2,3.5E-3,7.3889923E-1,4.8E4,2.03E2,1.36E0,1.5806626E0,8.308983E0,-3.0221484E0,7.12E4,4.05E2,7E4,5.8325167E0,1.111E3,4.5E-3,-1.6808312E0,6.7918124E0,1.462E5,3.71E0,2.18E2,6E0,2.54E2,1.92E-2,8.9E-3,1.3968879E1,3.6464999E0,-3.9988673E-1,-6.1293792E-2,1.8221996E0,-7.5069815E-1,-1.0743866E0,-2.597997E0,-8.096396E-1,3.3580786E-1,-1.8378344E0,-4.223465E-1,1.3282013E-2,2.4105722E-1,-6.571859E-1,8.48795E-1,6.799779E-1,4.5419006E0],"split_indices":[1,5,2,3,0,4,0,4,1,0,3,0,4,0,5,0,0,0,4,1,4,0,1,3,0,0,4,5,1,5,0,3,3,0,0,0,0,0,0,0,0,0,0,0,0,0,0,0,0,0,0],"split_type":[0,0,0,0,0,0,0,0,0,0,0,0,0,0,0,0,0,0,0,0,0,0,0,0,0,0,0,0,0,0,0,0,0,0,0,0,0,0,0,0,0,0,0,0,0,0,0,0,0,0,0],"sum_hessian":[2.6E2,2.5E2,1E1,2E1,2.3E2,9E0,1E0,1.5E1,5E0,7.7E1,1.53E2,2E0,7E0,6E0,9E0,1E0,4E0,6E0,7.1E1,2E1,1.33E2,4E0,3E0,4E0,2E0,1E0,8E0,3.8E1,3.3E1,1.8E1,2E0,9.8E1,3.5E1,2E0,1E0,2E0,2E0,7E0,1E0,3.2E1,6E0,2.1E1,1.2E1,1.7E1,1E0,1E0,1E0,7.5E1,2.3E1,2.6E1,9E0],"tree_param":{"num_deleted":"0","num_feature":"6","num_nodes":"51","size_leaf_vector":"1"}},{"base_weights":[1.3866367E0,-1.6210051E-1,3.6599945E1,1.2098176E1,-7.210256E-1,2.1220427E1,2.8559273E1,5.7185645E0,8.161285E0,-1.2604408E0,2.9737375E0,5.911194E-1,2.5786634E1,-3.5071545E0,1.091595E1,-1.735135E0,4.6333394E0,1.4071147E-1,6.40379E0,4.4327116E0,9.931091E0,-8.7293245E-2,-1.3446664E0,5.864655E-1,1.4907761E1,-3.37643E0,5.4007906E-1,8.829935E0,-2.0237033E0,-1.1999664E0,2.173227E0,7.8167405E0,-1.382609E0,5.067395E0,1.3435639E0,-7.2929895E-1,-2.8362675E0,4.292129E-2,4.9642115E0,9.238995E-1,3.6450517E0,3.896457E-1,-2.066002E0,-6.9432306E-1,5.144076E-1,3.398095E0,1.1073853E0,1.1292572E-1,-7.350998E-1],"categories":[],"categories_nodes":[],"categories_segments":[],"categories_sizes":[],"default_left":[0,0,0,0,0,0,0,0,0,0,0,0,0,0,0,0,0,0,0,0,0,0,0,0,0,0,0,0,0,0,0,0,0,0,0,0,0,0,0,0,0,0,0,0,0,0,0,0,0],"id":10,"left_children":[1,3,5,7,9,11,-1,13,-1,15,17,-1,19,21,23,25,27,29,31,-1,-1,-1,-1,-1,33,35,37,39,41,43,-1,45,47,-1,-1,-1,-1,-1,-1,-1,-1,-1,-1,-1,-1,-1,-1,-1,-1],"loss_changes":[1.4239871E4,1.7287196E3,7.8931025E3,9.045126E2,4.8406406E2,8.2818604E2,0E0,4.698305E2,0E0,5.9836316E2,3.0033914E2,0E0,1.5540674E2,1.1239719E1,1.854823E2,7.337458E2,4.6485986E2,1.8011282E2,1.6483258E2,0E0,0E0,0E0,0E0,0E0,7.099121E0,6.320781E2,5.2509955E2,1.5350415E2,1.2204581E2,5.5940063E1,0E0,1.3196515E2,6.556819E0,0E0,0E0,0E0,0E0,0E0,0E0,0E0,0E0,0E0,0E0,0E0,0E0,0E0,0E0,0E0,0E0],"parents":[2147483647,0,0,1,1,2,2,3,3,4,4,5,5,7,7,9,9,10,10,12,12,13,13,14,14,15,15,16,16,17,17,18,18,24,24,25,25,26,26,27,27,28,28,29,29,31,31,32,32],"right_children":[2,4,6,8,10,12,-1,14,-1,16,18,-1,20,22,24,26,28,30,32,-1,-1,-1,-1,-1,34,36,38,40,42,44,-1,46,48,-1,-1,-1,-1,-1,-1,-1,-1,-1,-1,-1,-1,-1,-1,-1,-1],"split_conditions":[8.83E2,1.5E0,5E1,3.6E2,1.92E-2,4.08E4,2.8559273E1,4.6E4,8.161285E0,7.42E1,2.53E2,5.911194E-1,4.8E4,1.52E2,1.52E2,7.12E4,6.16E0,4.57E2,6.46E1,4.4327116E0,9.931091E0,-8.7293245E-2,-1.3446664E0,5.864655E-1,1.25E-2,4.93E1,4.2E2,7E-3,7.5E1,5.01E4,2.173227E0,3.34E2,3.01E2,5.067395E0,1.3435639E0,-7.2929895E-1,-2.8362675E0,4.292129E-2,4.9642115E0,9.238995E-1,3.6450517E0,3.896457E-1,-2.066002E0,-6.9432306E-1,5.144076E-1,3.398095E0,1.1073853E0,1.1292572E-1,-7.350998E-1],"split_indices":[1,5,2,1,3,4,0,4,0,2,1,0,4,0,0,4,5,0,2,0,0,0,0,0,3,2,0,3,1,4,0,1,0,0,0,0,0,0,0,0,0,0,0,0,0,0,0,0,0],"split_type":[0,0,0,0,0,0,0,0,0,0,0,0,0,0,0,0,0,0,0,0,0,0,0,0,0,0,0,0,0,0,0,0,0,0,0,0,0,0,0,0,0,0,0,0,0,0,0,0,0],"sum_hessian":[2.6E2,2.5E2,1E1,1E1,2.4E2,9E0,1E0,8E0,2E0,2.1E2,3E1,2E0,7E0,3E0,5E0,1.95E2,1.5E1,1.7E1,1.3E1,4E0,3E0,1E0,2E0,2E0,3E0,1.13E2,8.2E1,9E0,6E0,1.5E1,2E0,1.1E1,2E0,2E0,1E0,9.9E1,1.4E1,8.1E1,1E0,4E0,5E0,4E0,2E0,1.1E1,4E0,5E0,6E0,1E0,1E0],"tree_param":{"num_deleted":"0","num_feature":"6","num_nodes":"49","size_leaf_vector":"1"}},{"base_weights":[1.2290806E0,-1.8102532E-2,2.9575796E1,9.716609E0,-4.6235034E-1,1.6349789E1,2.4275383E1,4.6213794E0,6.5290284E0,-1.6077329E0,9.1631186E-1,8.696657E0,2.565532E1,-2.8129978E0,8.807401E0,-9.690662E-1,-4.174256E0,-2.07096E-1,4.9504857E0,4.728943E-1,1.1229532E1,9.188886E0,1.6098634E0,-7.419892E-2,-1.0757332E0,2.9528313E0,1.3677693E1,-1.117073E0,2.2079487E0,-5.0988665E0,-1.4565234E0,-9.625539E-1,4.1672454E0,6.342824E-1,3.2789228E0,5.076025E0,1.6730622E0,1.0940094E0,1.3068467E-1,1.1420288E0,5.0129337E0,-1.6756634E0,-2.5216776E-1,-1.7822626E0,-1.3683501E-1,-6.033005E-1,3.6372358E-1,3.014402E-1,-1.9269058E0,-1.356874E-1,3.4946887E0,2.9277592E0,-2.1437483E-1],"categories":[],"categories_nodes":[],"categories_segments":[],"categories_sizes":[],"default_left":[0,0,0,0,0,0,0,0,0,0,0,0,0,0,0,0,0,0,0,0,0,0,0,0,0,0,0,0,0,0,0,0,0,0,0,0,0,0,0,0,0,0,0,0,0,0,0,0,0,0,0,0,0],"id":11,"left_children":[1,3,5,7,9,11,-1,13,-1,15,17,19,21,23,25,27,29,31,33,-1,35,-1,-1,-1,-1,37,39,41,-1,43,45,47,49,51,-1,-1,-1,-1,-1,-1,-1,-1,-1,-1,-1,-1,-1,-1,-1,-1,-1,-1,-1],"loss_changes":[9.227811E3,1.0899731E3,6.146577E3,5.7461743E2,3.8203522E2,4.8904883E2,0E0,3.0485938E2,0E0,2.1232303E2,4.9954767E2,1.0854321E2,2.3933154E2,7.0439167E0,1.3069287E2,1.4012393E2,5.790735E1,2.915141E2,6.1245184E2,0E0,6.6472534E1,0E0,0E0,0E0,0E0,5.397888E0,2.6178345E1,1.26278E2,0E0,7.1565674E1,1.4277096E1,8.121542E2,4.5457556E2,1.9159795E2,0E0,0E0,0E0,0E0,0E0,0E0,0E0,0E0,0E0,0E0,0E0,0E0,0E0,0E0,0E0,0E0,0E0,0E0,0E0],"parents":[2147483647,0,0,1,1,2,2,3,3,4,4,5,5,7,7,9,9,10,10,11,11,12,12,13,13,14,14,15,15,16,16,17,17,18,18,20,20,25,25,26,26,27,27,29,29,30,30,31,31,32,32,33,33],"right_children":[2,4,6,8,10,12,-1,14,-1,16,18,20,22,24,26,28,30,32,34,-1,36,-1,-1,-1,-1,38,40,42,-1,44,46,48,50,52,-1,-1,-1,-1,-1,-1,-1,-1,-1,-1,-1,-1,-1,-1,-1,-1,-1,-1,-1],"split_conditions":[8.83E2,1.5E0,5E1,3.6E2,2.29E2,4.8E4,2.4275383E1,4.6E4,6.5290284E0,3.77E0,8.07E4,4.08E4,1.111E3,1.52E2,2.03E2,1.92E5,1.4E-2,7.42E1,7E-3,4.728943E-1,8.89E2,9.188886E0,1.6098634E0,-7.419892E-2,-1.0757332E0,3.804E1,2.6E2,1.21E2,2.2079487E0,1.46E5,2E2,4.32E1,8.2E1,2.06E2,3.2789228E0,5.076025E0,1.6730622E0,1.0940094E0,1.3068467E-1,1.1420288E0,5.0129337E0,-1.6756634E0,-2.5216776E-1,-1.7822626E0,-1.3683501E-1,-6.033005E-1,3.6372358E-1,3.014402E-1,-1.9269058E0,-1.356874E-1,3.4946887E0,2.9277592E0,-2.1437483E-1],"split_indices":[1,5,2,1,0,4,0,4,0,5,4,4,1,0,0,4,3,2,3,0,1,0,0,0,0,2,1,0,0,4,0,2,1,1,0,0,0,0,0,0,0,0,0,0,0,0,0,0,0,0,0,0,0],"split_type":[0,0,0,0,0,0,0,0,0,0,0,0,0,0,0,0,0,0,0,0,0,0,0,0,0,0,0,0,0,0,0,0,0,0,0,0,0,0,0,0,0,0,0,0,0,0,0,0,0,0,0,0,0],"sum_hessian":[2.6E2,2.5E2,1E1,1E1,2.4E2,9E0,1E0,8E0,2E0,1.31E2,1.09E2,6E0,3E0,3E0,5E0,1.06E2,2.5E1,8.6E1,2.3E1,2E0,4E0,2E0,1E0,1E0,2E0,3E0,2E0,1.05E2,1E0,1.8E1,7E0,7.4E1,1.2E1,1.4E1,9E0,1E0,3E0,2E0,1E0,1E0,1E0,5E0,1E2,1.5E1,3E0,6E0,1E0,5.5E1,1.9E1,8E0,4E0,1E0,1.3E1],"tree_param":{"num_deleted":"0","num_feature":"6","num_nodes":"53","size_leaf_vector":"1"}},{"base_weights":[1.0936981E0,6.145617E-2,2.4548155E1,7.9615135E0,-2.9938236E-1,1.32469225E1,2.0634073E1,3.9271567E0,5.2232237E0,-6.073105E-1,3.793748E0,3.7831423E-1,1.608576E1,-2.2565794E0,7.395121E0,8.183164E-1,-1.4624238E0,-1.6348023E0,4.7120247E0,9.210495E0,2.0658401E1,-6.306954E-2,-8.6058545E-1,2.3731537E0,1.1626038E1,2.8837737E-1,2.324335E0,-3.258022E0,-7.190381E-1,3.3693857E0,3.7277415E0,4.314622E0,1.2966248E0,7.351105E0,1.3683839E0,8.7520754E-1,1.1108094E-1,9.707245E-1,4.2609925E0,2.2933535E-1,-1.0656765E0,-1.6587279E0,-4.2569044E-1,-6.8272406E-1,1.01718515E-1,7.2387016E-1,1.9173082E0],"categories":[],"categories_nodes":[],"categories_segments":[],"categories_sizes":[],"default_left":[0,0,0,0,0,0,0,0,0,0,0,0,0,0,0,0,0,0,0,0,0,0,0,0,0,0,0,0,0,0,0,0,0,0,0,0,0,0,0,0,0,0,0,0,0,0,0],"id":12,"left_children":[1,3,5,7,9,11,-1,13,-1,15,17,-1,19,21,23,25,27,-1,29,31,33,-1,-1,35,37,39,-1,41,43,45,-1,-1,-1,-1,-1,-1,-1,-1,-1,-1,-1,-1,-1,-1,-1,-1,-1],"loss_changes":[6.3174775E3,7.1789545E2,4.5875215E3,3.5096265E2,3.0605798E2,3.199746E2,0E0,2.0969247E2,0E0,2.7548804E2,1.6996857E2,0E0,6.1230957E1,4.406698E0,9.9894775E1,3.0990228E2,1.8586722E2,0E0,1.238418E2,6.42435E1,1.3582373E2,0E0,0E0,3.279707E0,1.8913788E1,1.4898944E2,0E0,1.633959E2,1.6713411E2,2.7931412E1,0E0,0E0,0E0,0E0,0E0,0E0,0E0,0E0,0E0,0E0,0E0,0E0,0E0,0E0,0E0,0E0,0E0],"parents":[2147483647,0,0,1,1,2,2,3,3,4,4,5,5,7,7,9,9,10,10,12,12,13,13,14,14,15,15,16,16,18,18,19,19,20,20,23,23,24,24,25,25,27,27,28,28,29,29],"right_children":[2,4,6,8,10,12,-1,14,-1,16,18,-1,20,22,24,26,28,-1,30,32,34,-1,-1,36,38,40,-1,42,44,46,-1,-1,-1,-1,-1,-1,-1,-1,-1,-1,-1,-1,-1,-1,-1,-1,-1],"split_conditions":[8.83E2,1.5E0,5E1,3.6E2,4.5E2,4.08E4,2.0634073E1,4.6E4,5.2232237E0,2.7E0,7.8E-3,3.7831423E-1,4.8E4,1.52E2,2.03E2,7.4E1,3.12E0,-1.6348023E0,4.76E4,8.89E2,1.111E3,-6.306954E-2,-8.6058545E-1,3.804E1,2.6E2,4.47E1,2.324335E0,4.9E4,8.8E-3,4.1E2,3.7277415E0,4.314622E0,1.2966248E0,7.351105E0,1.3683839E0,8.7520754E-1,1.1108094E-1,9.707245E-1,4.2609925E0,2.2933535E-1,-1.0656765E0,-1.6587279E0,-4.2569044E-1,-6.8272406E-1,1.01718515E-1,7.2387016E-1,1.9173082E0],"split_indices":[1,5,2,1,0,4,0,4,0,5,3,0,4,0,0,2,5,0,4,1,1,0,0,2,1,2,0,4,3,1,0,0,0,0,0,0,0,0,0,0,0,0,0,0,0,0,0],"split_type":[0,0,0,0,0,0,0,0,0,0,0,0,0,0,0,0,0,0,0,0,0,0,0,0,0,0,0,0,0,0,0,0,0,0,0,0,0,0,0,0,0,0,0,0,0,0,0],"sum_hessian":[2.6E2,2.5E2,1E1,1E1,2.4E2,9E0,1E0,8E0,2E0,2.24E2,1.6E1,2E0,7E0,3E0,5E0,8.4E1,1.4E2,1E0,1.5E1,4E0,3E0,1E0,2E0,3E0,2E0,7.9E1,5E0,4E1,1E2,1.4E1,1E0,1E0,3E0,2E0,1E0,2E0,1E0,1E0,1E0,7.1E1,8E0,1.7E1,2.3E1,4E1,6E1,1.2E1,2E0],"tree_param":{"num_deleted":"0","num_feature":"6","num_nodes":"47","size_leaf_vector":"1"}},{"base_weights":[9.5492655E-1,9.9091776E-2,2.039671E1,6.5291996E0,-1.948098E-1,1.0743741E1,1.753896E1,1.3762156E0,1.0593984E1,-7.562978E-1,1.3054432E0,3.02652E-1,1.3051361E1,-1.0077718E0,2.8201523E0,2.7768862E-1,3.702759E0,-5.865696E0,-5.41462E-1,-5.9518266E-1,3.224105E0,7.5695925E0,1.6640732E1,-5.3608704E-2,-3.9988863E-1,9.441834E-2,1.0651155E0,-6.9107896E-1,-2.048945E0,-1.5152364E0,6.828804E-1,2.668349E0,-1.876788E0,7.040959E0,1.2584745E0,3.6674287E0,1.0048828E0,5.880878E0,1.1631227E0,-5.11911E-1,2.4676952E0,-5.9631914E-2,1.2844568E0,1.3932018E0,3.4746292E-1,-8.328161E-1,6.826456E-1,5.096528E-1,2.9552717E0,3.739796E-2,1.3350518E0],"categories":[],"categories_nodes":[],"categories_segments":[],"categories_sizes":[],"default_left":[0,0,0,0,0,0,0,0,0,0,0,0,0,0,0,0,0,0,0,0,0,0,0,0,0,0,0,0,0,0,0,0,0,0,0,0,0,0,0,0,0,0,0,0,0,0,0,0,0,0,0],"id":13,"left_children":[1,3,5,7,9,11,-1,13,15,17,19,-1,21,23,25,-1,-1,27,29,31,33,35,37,-1,-1,-1,-1,-1,-1,39,41,43,45,47,49,-1,-1,-1,-1,-1,-1,-1,-1,-1,-1,-1,-1,-1,-1,-1,-1],"loss_changes":[4.340746E3,4.756165E2,3.4138872E3,2.1582385E2,2.0399944E2,2.1147778E2,0E0,2.3496033E1,9.000873E1,1.9001591E2,2.4259836E2,0E0,3.144519E1,5.706277E-1,6.2007656E0,0E0,0E0,8.306915E0,2.0371437E2,1.4721495E2,2.387225E2,5.7275543E1,7.523181E1,0E0,0E0,0E0,0E0,0E0,0E0,1.9090784E2,2.4198048E2,2.4456436E1,9.966679E1,1.4838654E2,8.2677505E1,0E0,0E0,0E0,0E0,0E0,0E0,0E0,0E0,0E0,0E0,0E0,0E0,0E0,0E0,0E0,0E0],"parents":[2147483647,0,0,1,1,2,2,3,3,4,4,5,5,7,7,8,8,9,9,10,10,12,12,13,13,14,14,17,17,18,18,19,19,20,20,21,21,22,22,29,29,30,30,31,31,32,32,33,33,34,34],"right_children":[2,4,6,8,10,12,-1,14,16,18,20,-1,22,24,26,-1,-1,28,30,32,34,36,38,-1,-1,-1,-1,-1,-1,40,42,44,46,48,50,-1,-1,-1,-1,-1,-1,-1,-1,-1,-1,-1,-1,-1,-1,-1,-1],"split_conditions":[8.83E2,1.5E0,5E1,2.6E2,2.79E2,4.08E4,1.753896E1,2.24E2,1.52E2,2.41E1,1.61E2,3.02652E-1,4.8E4,1.52E2,1.52E2,2.7768862E-1,3.702759E0,1.52E2,7.12E4,7.8E1,2.62E2,8.89E2,1.111E3,-5.3608704E-2,-3.9988863E-1,9.441834E-2,1.0651155E0,-6.9107896E-1,-2.048945E0,8.14E1,1.25E-2,4.9E1,1.81E-2,3.66E1,5.94E2,3.6674287E0,1.0048828E0,5.880878E0,1.1631227E0,-5.11911E-1,2.4676952E0,-5.9631914E-2,1.2844568E0,1.3932018E0,3.4746292E-1,-8.328161E-1,6.826456E-1,5.096528E-1,2.9552717E0,3.739796E-2,1.3350518E0],"split_indices":[1,5,2,1,0,4,0,1,0,2,1,0,4,0,0,0,0,0,4,1,1,1,1,0,0,0,0,0,0,2,3,2,3,2,1,0,0,0,0,0,0,0,0,0,0,0,0,0,0,0,0],"split_type":[0,0,0,0,0,0,0,0,0,0,0,0,0,0,0,0,0,0,0,0,0,0,0,0,0,0,0,0,0,0,0,0,0,0,0,0,0,0,0,0,0,0,0,0,0,0,0,0,0,0,0],"sum_hessian":[2.6E2,2.5E2,1E1,1E1,2.4E2,9E0,1E0,5E0,5E0,1.75E2,6.5E1,2E0,7E0,2E0,3E0,1E0,4E0,6E0,1.69E2,3.3E1,3.2E1,4E0,3E0,1E0,1E0,1E0,2E0,2E0,4E0,9.4E1,7.5E1,9E0,2.4E1,1E1,2.2E1,1E0,3E0,2E0,1E0,9.3E1,1E0,6.1E1,1.4E1,3E0,6E0,2E1,4E0,4E0,6E0,1.7E1,5E0],"tree_param":{"num_deleted":"0","num_feature":"6","num_nodes":"51","size_leaf_vector":"1"}},{"base_weights":[8.2596874E-1,3.2373806E1,4.573607E-1,1.4908118E1,-3.3990556E-1,8.271563E0,1.0790871E-2,2.8558874E0,1.3279253E1,-2.878947E-1,3.0650392E0,6.1074705E0,-1.9225636E0,4.3181887E0,9.8865056E-1,-3.4212728E0,-9.530405E-2,4.2477813E0,-7.9690295E-1,7.570862E-1,3.0664308E0,7.708486E-2,-1.1882263E0,-4.248758E0,7.532628E-1,-1.1383854E0,5.4067266E-1,3.1173136E0,3.214387E0,-1.7980194E0,6.313019E-1,-4.5566943E-2,8.025513E-2,-2.2559205E-1,-1.4826806E0,1.1552811E-2,3.2741547E-1,-2.6720265E-1,-1.2258943E0,-1.1159816E-1,7.3786676E-1,6.65232E-1,2.7252893E0,4.4403994E-1,-8.9627725E-1],"categories":[],"categories_nodes":[],"categories_segments":[],"categories_sizes":[],"default_left":[0,0,0,0,0,0,0,0,0,0,0,0,0,0,0,0,0,0,0,0,0,0,0,0,0,0,0,0,0,0,0,0,0,0,0,0,0,0,0,0,0,0,0,0,0],"id":14,"left_children":[1,3,5,-1,-1,7,9,11,13,15,17,19,21,-1,-1,23,25,27,29,-1,-1,31,-1,33,35,37,39,-1,41,43,-1,-1,-1,-1,-1,-1,-1,-1,-1,-1,-1,-1,-1,-1,-1],"loss_changes":[3.0203064E3,1.7973103E3,9.037137E2,0E0,0E0,3.417564E2,2.2529836E2,1.3604227E2,3.046753E1,1.3545229E2,1.0387404E2,4.7924133E1,1.6607975E1,0E0,0E0,4.8107162E1,1.4191447E2,7.452222E1,2.1210533E1,0E0,0E0,1.7144558E-1,0E0,2.2959183E1,6.829932E-1,5.5509148E1,2.3383788E2,0E0,7.3487976E1,2.3920012E1,0E0,0E0,0E0,0E0,0E0,0E0,0E0,0E0,0E0,0E0,0E0,0E0,0E0,0E0,0E0],"parents":[2147483647,0,0,1,1,2,2,5,5,6,6,7,7,8,8,9,9,10,10,11,11,12,12,15,15,16,16,17,17,18,18,21,21,23,23,24,24,25,25,26,26,28,28,29,29],"right_children":[2,4,6,-1,-1,8,10,12,14,16,18,20,22,-1,-1,24,26,28,30,-1,-1,32,-1,34,36,38,40,-1,42,44,-1,-1,-1,-1,-1,-1,-1,-1,-1,-1,-1,-1,-1,-1,-1],"split_conditions":[1.12E0,3.05E2,1.5E0,1.4908118E1,-3.3990556E-1,2.54E2,4.5E2,3.96E1,1.111E3,3.2E-3,4.05E1,3.804E1,1.52E2,4.3181887E0,9.8865056E-1,4.05E2,1.6E2,6E-3,4.14E4,7.570862E-1,3.0664308E0,2.24E2,-1.1882263E0,2.2E-3,2.54E2,4.93E1,8.07E4,3.1173136E0,4.76E4,1.41E2,6.313019E-1,-4.5566943E-2,8.025513E-2,-2.2559205E-1,-1.4826806E0,1.1552811E-2,3.2741547E-1,-2.6720265E-1,-1.2258943E0,-1.1159816E-1,7.3786676E-1,6.65232E-1,2.7252893E0,4.4403994E-1,-8.9627725E-1],"split_indices":[5,0,5,0,0,0,0,2,1,3,2,2,0,0,0,1,0,3,4,0,0,1,0,3,0,2,4,0,4,1,0,0,0,0,0,0,0,0,0,0,0,0,0,0,0],"split_type":[0,0,0,0,0,0,0,0,0,0,0,0,0,0,0,0,0,0,0,0,0,0,0,0,0,0,0,0,0,0,0,0,0,0,0,0,0,0,0,0,0,0,0,0,0],"sum_hessian":[2.6E2,2E0,2.58E2,1E0,1E0,1.3E1,2.45E2,7E0,6E0,2.24E2,2.1E1,4E0,3E0,5E0,1E0,1.2E1,2.12E2,1.6E1,5E0,3E0,1E0,2E0,1E0,1E1,2E0,8E1,1.32E2,1E0,1.5E1,4E0,1E0,1E0,1E0,2E0,8E0,1E0,1E0,7.5E1,5E0,9E1,4.2E1,1.4E1,1E0,1E0,3E0],"tree_param":{"num_deleted":"0","num_feature":"6","num_nodes":"45","size_leaf_vector":"1"}},{"base_weights":[6.816107E-1,2.7517746E1,3.6813572E-1,1.2671906E1,-2.8891984E-1,-9.3627304E-2,4.8934665E0,-1.1127903E0,4.4614688E-1,1.950619E0,8.818392E0,1.2295334E0,-1.6555425E0,1.8527101E0,-5.371813E-1,4.636588E0,-3.5520342E-1,1.2370274E0,1.024146E1,-3.7427807E-1,4.832774E0,2.0217638E0,-1.8595062E0,6.0712683E-1,3.649827E0,-1.8217459E0,4.424369E-1,2.649717E0,2.4652226E0,-3.0579467E0,2.4185805E0,1.1014644E1,8.403534E-1,-5.4368836E-1,1.3631607E0,-2.3243485E-1,2.648822E0,1.068393E0,9.6443556E-2,-1.2260761E0,-4.67586E-1,3.8135582E-1,-5.242941E-1,2.1914866E0,6.5641224E-1,-3.864238E-2,-2.2915995E0,-5.3796256E-1,6.2606084E-1,-3.1450655E-2,9.000605E-1,-1.3306687E0,3.6787722E-1,1.4523011E-1,8.3435273E-1,4.351978E0,1.6926064E0],"categories":[],"categories_nodes":[],"categories_segments":[],"categories_sizes":[],"default_left":[0,0,0,0,0,0,0,0,0,0,0,0,0,0,0,0,0,0,0,0,0,0,0,0,0,0,0,0,0,0,0,0,0,0,0,0,0,0,0,0,0,0,0,0,0,0,0,0,0,0,0,0,0,0,0,0,0],"id":15,"left_children":[1,3,5,-1,-1,7,9,11,13,15,17,19,21,23,25,27,29,-1,31,33,35,37,39,41,43,45,47,-1,49,51,53,55,-1,-1,-1,-1,-1,-1,-1,-1,-1,-1,-1,-1,-1,-1,-1,-1,-1,-1,-1,-1,-1,-1,-1,-1,-1],"loss_changes":[2.1855208E3,1.2985581E3,5.416725E2,0E0,0E0,1.3032431E2,2.6000958E2,1.0628223E2,2.1537779E2,9.454744E1,2.4582703E1,9.427151E1,5.401198E1,1.4104547E2,1.1657724E2,4.200052E1,7.4867325E1,0E0,9.414978E0,9.310334E1,1.18897575E2,9.325785E0,3.652275E1,6.3206238E1,1.22934875E2,3.9292343E2,1.9858969E2,0E0,8.564087E0,3.494907E1,2.1607952E0,3.0718933E1,0E0,0E0,0E0,0E0,0E0,0E0,0E0,0E0,0E0,0E0,0E0,0E0,0E0,0E0,0E0,0E0,0E0,0E0,0E0,0E0,0E0,0E0,0E0,0E0,0E0],"parents":[2147483647,0,0,1,1,2,2,5,5,6,6,7,7,8,8,9,9,10,10,11,11,12,12,13,13,14,14,15,15,16,16,18,18,19,19,20,20,21,21,22,22,23,23,24,24,25,25,26,26,28,28,29,29,30,30,31,31],"right_children":[2,4,6,-1,-1,8,10,12,14,16,18,20,22,24,26,28,30,-1,32,34,36,38,40,42,44,46,48,-1,50,52,54,56,-1,-1,-1,-1,-1,-1,-1,-1,-1,-1,-1,-1,-1,-1,-1,-1,-1,-1,-1,-1,-1,-1,-1,-1,-1],"split_conditions":[1.12E0,3.05E2,4.96E2,1.2671906E1,-2.8891984E-1,3.41E1,1.21E-2,1.78E0,4.03E1,3.08E1,3.8E4,5.2E-3,1.54E2,3.73E1,4.23E4,6E-3,3.73E1,1.2370274E0,1.111E3,2.53E2,1.52E2,2.5E2,2.41E1,2.2E-2,7.9E-3,2.96E2,1.6E2,2.649717E0,4.08E4,7.34E2,4.03E1,4.13E1,8.403534E-1,-5.4368836E-1,1.3631607E0,-2.3243485E-1,2.648822E0,1.068393E0,9.6443556E-2,-1.2260761E0,-4.67586E-1,3.8135582E-1,-5.242941E-1,2.1914866E0,6.5641224E-1,-3.864238E-2,-2.2915995E0,-5.3796256E-1,6.2606084E-1,-3.1450655E-2,9.000605E-1,-1.3306687E0,3.6787722E-1,1.4523011E-1,8.3435273E-1,4.351978E0,1.6926064E0],"split_indices":[5,0,1,0,0,2,3,5,2,2,4,3,1,2,4,3,2,0,1,1,0,0,2,3,3,1,0,0,4,1,2,2,0,0,0,0,0,0,0,0,0,0,0,0,0,0,0,0,0,0,0,0,0,0,0,0,0],"split_type":[0,0,0,0,0,0,0,0,0,0,0,0,0,0,0,0,0,0,0,0,0,0,0,0,0,0,0,0,0,0,0,0,0,0,0,0,0,0,0,0,0,0,0,0,0,0,0,0,0,0,0,0,0,0,0,0,0],"sum_hessian":[2.6E2,2E0,2.58E2,1E0,1E0,2.35E2,2.3E1,8.1E1,1.54E2,1.4E1,9E0,1.5E1,6.6E1,6.3E1,9.1E1,6E0,8E0,3E0,6E0,1.1E1,4E0,3E0,6.3E1,3.8E1,2.5E1,3.9E1,5.2E1,1E0,5E0,4E0,4E0,5E0,1E0,9E0,2E0,2E0,2E0,1E0,2E0,6E0,5.7E1,3E1,8E0,6E0,1.9E1,3.1E1,8E0,2.2E1,3E1,1E0,4E0,3E0,1E0,1E0,3E0,2E0,3E0],"tree_param":{"num_deleted":"0","num_feature":"6","num_nodes":"57","size_leaf_vector":"1"}},{"base_weights":[5.813801E-1,2.3390095E1,3.149418E-1,1.0771125E1,-2.4558164E-1,5.4866858E0,1.9334665E-2,3.5813904E-1,6.852822E0,-1.2604797E-1,3.1366951E0,4.3981936E-2,1.4891052E-1,4.4572415E0,3.5265872E0,-3.370925E-1,1.4537505E0,-2.3040162E-1,3.6039658E0,6.130905E-1,6.2771354E0,-4.547618E-1,3.1234736E0,-6.1498642E-2,3.80109E0,4.5279083E0,3.2582247E-1,6.8940437E-1,-6.6625214E-1,2.5481348E0,3.687683E-1,-1.5359755E-1,1.6658547E0,-5.9864275E-2,2.2862053E0,-2.3312896E-1,1.1326569E0,1.4440116E0,-1.5083542E-1,-2.67334E-2,1.5936791E0],"categories":[],"categories_nodes":[],"categories_segments":[],"categories_sizes":[],"default_left":[0,0,0,0,0,0,0,0,0,0,0,0,0,0,0,0,0,0,0,0,0,0,0,0,0,0,0,0,0,0,0,0,0,0,0,0,0,0,0,0,0],"id":16,"left_children":[1,3,5,-1,-1,7,9,11,13,15,17,-1,-1,19,-1,21,23,-1,25,27,29,31,33,35,37,39,-1,-1,-1,-1,-1,-1,-1,-1,-1,-1,-1,-1,-1,-1,-1],"loss_changes":[1.5787606E3,9.38209E2,3.9585425E2,0E0,0E0,9.563385E1,1.1188504E2,4.4189215E-2,7.679065E1,7.917429E1,2.2837936E1,0E0,0E0,5.911505E1,0E0,8.652574E1,9.9824295E1,0E0,1.8346222E1,2.4203356E1,5.669577E1,7.2637566E1,1.06130974E2,5.2357704E1,5.0344147E1,2.582306E1,0E0,0E0,0E0,0E0,0E0,0E0,0E0,0E0,0E0,0E0,0E0,0E0,0E0,0E0,0E0],"parents":[2147483647,0,0,1,1,2,2,5,5,6,6,7,7,8,8,9,9,10,10,13,13,15,15,16,16,18,18,19,19,20,20,21,21,22,22,23,23,24,24,25,25],"right_children":[2,4,6,-1,-1,8,10,12,14,16,18,-1,-1,20,-1,22,24,-1,26,28,30,32,34,36,38,40,-1,-1,-1,-1,-1,-1,-1,-1,-1,-1,-1,-1,-1,-1,-1],"split_conditions":[1.12E0,3.05E2,1.5E0,1.0771125E1,-2.4558164E-1,1.52E2,5.94E2,1.3E-2,1.3E5,2.02E-2,4.4E-3,4.3981936E-2,1.4891052E-1,2.54E2,3.5265872E0,8.83E1,2.53E2,-2.3040162E-1,8.89E2,2.6E2,1.097E3,1.92E5,8.2E1,4.57E2,6.46E1,2.96E1,3.2582247E-1,6.8940437E-1,-6.6625214E-1,2.5481348E0,3.687683E-1,-1.5359755E-1,1.6658547E0,-5.9864275E-2,2.2862053E0,-2.3312896E-1,1.1326569E0,1.4440116E0,-1.5083542E-1,-2.67334E-2,1.5936791E0],"split_indices":[5,0,5,0,0,0,1,3,4,3,3,0,0,0,0,2,1,0,1,1,1,4,1,0,2,2,0,0,0,0,0,0,0,0,0,0,0,0,0,0,0],"split_type":[0,0,0,0,0,0,0,0,0,0,0,0,0,0,0,0,0,0,0,0,0,0,0,0,0,0,0,0,0,0,0,0,0,0,0,0,0,0,0,0,0],"sum_hessian":[2.6E2,2E0,2.58E2,1E0,1E0,1.3E1,2.45E2,3E0,1E1,2.35E2,1E1,2E0,1E0,8E0,2E0,2.08E2,2.7E1,1E0,9E0,3E0,5E0,2.02E2,6E0,1.7E1,1E1,6E0,3E0,2E0,1E0,3E0,2E0,2.01E2,1E0,4E0,2E0,1.5E1,2E0,8E0,2E0,1E0,5E0],"tree_param":{"num_deleted":"0","num_feature":"6","num_nodes":"41","size_leaf_vector":"1"}},{"base_weights":[5.019035E-1,1.9881582E1,2.7549058E-1,9.155457E0,-2.0874424E-1,4.31636E0,4.4402517E-2,2.9892159E-1,5.38485E0,-1.6723609E0,2.2896717E-1,3.5186008E-2,1.2657395E-1,3.4467418E0,2.8212676E0,1.4068311E0,-2.0162344E0,4.7715898E0,1.6626656E-1,1.2449774E0,5.887703E0,1.1130696E-1,5.217671E-1,-2.2562377E0,2.55867E-1,1.8105125E-1,1.9661642E0,1.0357034E-2,1.9240042E0,6.747171E-1,-5.663132E-1,2.499393E0,-2.1646729E-1,1.2083531E-1,-7.252157E-1,-6.1049655E-2,1.7618981E-1,6.861743E-1,-3.193791E-2,3.4749886E-1,2.2410715E0],"categories":[],"categories_nodes":[],"categories_segments":[],"categories_sizes":[],"default_left":[0,0,0,0,0,0,0,0,0,0,0,0,0,0,0,0,0,0,0,0,0,0,0,0,0,0,0,0,0,0,0,0,0,0,0,0,0,0,0,0,0],"id":17,"left_children":[1,3,5,-1,-1,7,9,11,13,15,17,-1,-1,19,-1,21,23,25,27,29,31,-1,-1,33,35,-1,-1,37,39,-1,-1,-1,-1,-1,-1,-1,-1,-1,-1,-1,-1],"loss_changes":[1.1397411E3,6.7785583E2,2.4166167E2,0E0,0E0,5.8486694E1,7.8328964E1,3.987345E-2,5.327591E1,2.8248962E1,6.2722668E1,0E0,0E0,4.1039734E1,0E0,3.8759184E-1,1.2574165E1,1.8330933E1,6.0544693E1,2.3118378E1,7.0613235E1,0E0,0E0,9.543594E0,5.762608E-1,0E0,0E0,5.4503193E1,6.7785995E1,0E0,0E0,0E0,0E0,0E0,0E0,0E0,0E0,0E0,0E0,0E0,0E0],"parents":[2147483647,0,0,1,1,2,2,5,5,6,6,7,7,8,8,9,9,10,10,13,13,15,15,16,16,17,17,18,18,19,19,20,20,23,23,24,24,27,27,28,28],"right_children":[2,4,6,-1,-1,8,10,12,14,16,18,-1,-1,20,-1,22,24,26,28,30,32,-1,-1,34,36,-1,-1,38,40,-1,-1,-1,-1,-1,-1,-1,-1,-1,-1,-1,-1],"split_conditions":[1.12E0,3.05E2,1.5E0,9.155457E0,-2.0874424E-1,1.52E2,3.5E-3,1.3E-2,1.3E5,1.55E0,3.8E-3,3.5186008E-2,1.2657395E-1,4.06E1,2.8212676E0,4.82E4,4.05E2,2.54E2,4.57E2,4E1,1.097E3,1.1130696E-1,5.217671E-1,1.8E-3,2.54E2,1.8105125E-1,1.9661642E0,7.8E1,4.76E4,6.747171E-1,-5.663132E-1,2.499393E0,-2.1646729E-1,1.2083531E-1,-7.252157E-1,-6.1049655E-2,1.7618981E-1,6.861743E-1,-3.193791E-2,3.4749886E-1,2.2410715E0],"split_indices":[5,0,5,0,0,0,3,3,4,5,3,0,0,2,0,4,1,0,0,2,1,0,0,3,0,0,0,1,4,0,0,0,0,0,0,0,0,0,0,0,0],"split_type":[0,0,0,0,0,0,0,0,0,0,0,0,0,0,0,0,0,0,0,0,0,0,0,0,0,0,0,0,0,0,0,0,0,0,0,0,0,0,0,0,0],"sum_hessian":[2.6E2,2E0,2.58E2,1E0,1E0,1.3E1,2.45E2,3E0,1E1,2.3E1,2.22E2,2E0,1E0,8E0,2E0,2E0,2.1E1,2E0,2.2E2,5E0,3E0,1E0,1E0,1.9E1,2E0,1E0,1E0,2.03E2,1.7E1,4E0,1E0,2E0,1E0,1E0,1.8E1,1E0,1E0,9E0,1.94E2,1.6E1,1E0],"tree_param":{"num_deleted":"0","num_feature":"6","num_nodes":"41","size_leaf_vector":"1"}},{"base_weights":[4.2740408E-1,1.6899324E1,2.3495942E-1,7.7821293E0,-1.7743264E-1,2.3152072E0,-6.849053E-2,5.3338283E-1,4.1750593E0,-3.1200228E0,4.2785607E-2,-1.3806572E0,2.6008291E0,1.8658193E0,5.055094E0,-3.7753742E0,2.2011568E-1,-3.646588E-1,8.1958365E-1,1.0596466E0,-7.427915E0,7.1872153E0,2.6368824E-1,-4.4357303E-1,3.9076614E0,1.2135316E-2,5.552513E0,-1.2859136E0,-1.6652426E0,-5.200871E-1,3.322778E0,-2.2531252E-1,2.1169646E0,-1.1807694E-1,7.8338414E-1,1.9621927E-1,-3.5387812E0,3.121239E-1,2.922123E0,2.687527E-1,-5.293854E-1,1.4968568E0,9.9311836E-2,2.1036806E0,1.0231897E0,-9.705449E-1,2.211857E-1,-2.1110617E-1,5.8112484E-1,1.1873618E-1,1.8353521E0,3.042735E-1,-8.5962397E-1,2.2134793E-1,1.1444055E0],"categories":[],"categories_nodes":[],"categories_segments":[],"categories_sizes":[],"default_left":[0,0,0,0,0,0,0,0,0,0,0,0,0,0,0,0,0,0,0,0,0,0,0,0,0,0,0,0,0,0,0,0,0,0,0,0,0,0,0,0,0,0,0,0,0,0,0,0,0,0,0,0,0,0,0],"id":18,"left_children":[1,3,5,-1,-1,7,9,11,13,15,17,19,21,23,25,27,-1,29,31,33,35,37,39,-1,41,-1,43,-1,45,47,49,51,53,-1,-1,-1,-1,-1,-1,-1,-1,-1,-1,-1,-1,-1,-1,-1,-1,-1,-1,-1,-1,-1,-1],"loss_changes":[8.233819E2,4.8974982E2,1.636526E2,0E0,0E0,1.0713277E2,7.721422E1,7.482001E1,2.3083496E1,2.2974503E1,6.992932E1,1.5544241E2,9.4576096E1,4.6750153E1,2.7213562E1,4.1014862E-1,0E0,8.483228E1,1.03504745E2,1.90669E1,1.1362207E2,3.6947906E1,1.0556232E1,0E0,1.3825901E1,0E0,7.3499756E0,0E0,1.3700463E1,6.452222E1,4.666536E1,1.4362616E2,7.679271E1,0E0,0E0,0E0,0E0,0E0,0E0,0E0,0E0,0E0,0E0,0E0,0E0,0E0,0E0,0E0,0E0,0E0,0E0,0E0,0E0,0E0,0E0],"parents":[2147483647,0,0,1,1,2,2,5,5,6,6,7,7,8,8,9,9,10,10,11,11,12,12,13,13,14,14,15,15,17,17,18,18,19,19,20,20,21,21,22,22,24,24,26,26,28,28,29,29,30,30,31,31,32,32],"right_children":[2,4,6,-1,-1,8,10,12,14,16,18,20,22,24,26,28,-1,30,32,34,36,38,40,-1,42,-1,44,-1,46,48,50,52,54,-1,-1,-1,-1,-1,-1,-1,-1,-1,-1,-1,-1,-1,-1,-1,-1,-1,-1,-1,-1,-1,-1],"split_conditions":[1.12E0,3.05E2,1.78E0,7.7821293E0,-1.7743264E-1,2.6E2,2E0,5.2E-3,4.8E4,1.92E-2,1.21E-2,5.1E-3,2.66E1,1.36E0,1.52E2,1.52E2,2.2011568E-1,8.83E1,4.23E4,9.4E4,9.4E4,9.4E4,1.35E5,-4.4357303E-1,5E2,1.2135316E-2,1.36E0,-1.2859136E0,2.32E1,5.94E2,7.8E1,4.17E1,3.87E1,-1.1807694E-1,7.8338414E-1,1.9621927E-1,-3.5387812E0,3.121239E-1,2.922123E0,2.687527E-1,-5.293854E-1,1.4968568E0,9.9311836E-2,2.1036806E0,1.0231897E0,-9.705449E-1,2.211857E-1,-2.1110617E-1,5.8112484E-1,1.1873618E-1,1.8353521E0,3.042735E-1,-8.5962397E-1,2.2134793E-1,1.1444055E0],"split_indices":[5,0,5,0,0,1,5,3,4,3,3,3,2,5,0,0,0,2,4,4,4,4,4,0,1,0,5,0,2,1,1,2,2,0,0,0,0,0,0,0,0,0,0,0,0,0,0,0,0,0,0,0,0,0,0],"split_type":[0,0,0,0,0,0,0,0,0,0,0,0,0,0,0,0,0,0,0,0,0,0,0,0,0,0,0,0,0,0,0,0,0,0,0,0,0,0,0,0,0,0,0,0,0,0,0,0,0,0,0,0,0,0,0],"sum_hessian":[2.6E2,2E0,2.58E2,1E0,1E0,3.2E1,2.26E2,1.7E1,1.5E1,7E0,2.19E2,9E0,8E0,5E0,1E1,6E0,1E0,1.44E2,7.5E1,7E0,2E0,2E0,6E0,2E0,3E0,1E0,9E0,4E0,2E0,1.39E2,5E0,4.2E1,3.3E1,4E0,3E0,1E0,1E0,1E0,1E0,5E0,1E0,2E0,1E0,4E0,5E0,1E0,1E0,1.3E2,9E0,3E0,2E0,2.9E1,1.3E1,1.9E1,1.4E1],"tree_param":{"num_deleted":"0","num_feature":"6","num_nodes":"55","size_leaf_vector":"1"}},{"base_weights":[3.5095245E-1,1.4364434E1,1.8727909E-1,6.6148133E0,-1.5081769E-1,-1.31115755E-2,2.1499841E0,1.7291626E-1,-2.030858E0,7.904485E-1,3.974289E0,-5.413837E-1,6.19396E-1,-1.3583231E-1,-3.040808E0,2.9880626E0,-6.0716474E-1,4.2364535E0,2.4222107E-1,1.17563486E-1,-2.5238235E0,1.422424E-1,2.3421159E0,-9.330895E-1,1.3740393E0,-3.325044E0,5.550385E-2,1.8739129E0,1.0871246E0,-2.1805878E0,4.2071277E-1,2.1592102E0,4.915207E0,2.0236896E-1,-2.9293844E-1,-5.8441352E-2,-2.1462097E0,-1.4580876E-1,3.333542E-1,1.3104111E-1,1.3960546E0,-3.0185395E-1,8.447082E-1,-2.1393852E-1,-1.1328343E0,1.0061874E0,-9.5421985E-2,-1.142096E0,-1.2469254E-1,8.44162E-2,8.0740666E-1,1.9819825E0,7.2535634E-1],"categories":[],"categories_nodes":[],"categories_segments":[],"categories_sizes":[],"default_left":[0,0,0,0,0,0,0,0,0,0,0,0,0,0,0,0,0,0,0,0,0,0,0,0,0,0,0,0,0,0,0,0,0,0,0,0,0,0,0,0,0,0,0,0,0,0,0,0,0,0,0,0,0],"id":19,"left_children":[1,3,5,-1,-1,7,9,11,13,15,17,19,21,23,25,27,29,31,-1,33,35,37,39,-1,41,43,-1,-1,45,47,-1,49,51,-1,-1,-1,-1,-1,-1,-1,-1,-1,-1,-1,-1,-1,-1,-1,-1,-1,-1,-1,-1],"loss_changes":[5.9594824E2,3.5384467E2,1.01894905E2,0E0,0E0,8.893542E1,5.6383514E1,6.954107E1,3.7864586E1,4.7885464E1,4.881912E0,1.1002785E2,1.0981511E2,4.0202168E1,1.2534805E1,3.037252E1,3.467658E1,2.0764618E0,0E0,3.9658466E1,2.250671E2,6.506824E1,1.2568152E2,0E0,2.3421818E1,1.1445038E1,0E0,0E0,1.6993553E1,1.564069E1,0E0,3.2397842E0,9.370346E0,0E0,0E0,0E0,0E0,0E0,0E0,0E0,0E0,0E0,0E0,0E0,0E0,0E0,0E0,0E0,0E0,0E0,0E0,0E0,0E0],"parents":[2147483647,0,0,1,1,2,2,5,5,6,6,7,7,8,8,9,9,10,10,11,11,12,12,13,13,14,14,15,15,16,16,17,17,19,19,20,20,21,21,22,22,24,24,25,25,28,28,29,29,31,31,32,32],"right_children":[2,4,6,-1,-1,8,10,12,14,16,18,20,22,24,26,28,30,32,-1,34,36,38,40,-1,42,44,-1,-1,46,48,-1,50,52,-1,-1,-1,-1,-1,-1,-1,-1,-1,-1,-1,-1,-1,-1,-1,-1,-1,-1,-1,-1],"split_conditions":[1.12E0,3.05E2,4.96E2,6.6148133E0,-1.5081769E-1,3.7E2,1.21E-2,4.23E4,4.635E4,3E1,1.111E3,2.62E2,2.5E2,4.12E2,3.54E0,6E-3,3.73E1,3.8E4,2.4222107E-1,6E1,4.36E1,2.26E2,3.99E1,-9.330895E-1,3.73E1,2.5E-3,5.550385E-2,1.8739129E0,3.01E2,5.94E2,4.2071277E-1,5.05E2,4.13E1,2.0236896E-1,-2.9293844E-1,-5.8441352E-2,-2.1462097E0,-1.4580876E-1,3.333542E-1,1.3104111E-1,1.3960546E0,-3.0185395E-1,8.447082E-1,-2.1393852E-1,-1.1328343E0,1.0061874E0,-9.5421985E-2,-1.142096E0,-1.2469254E-1,8.44162E-2,8.0740666E-1,1.9819825E0,7.2535634E-1],"split_indices":[5,0,1,0,0,1,3,4,4,2,1,1,0,1,5,3,2,4,0,2,2,1,2,0,2,3,0,0,0,1,0,1,2,0,0,0,0,0,0,0,0,0,0,0,0,0,0,0,0,0,0,0,0],"split_type":[0,0,0,0,0,0,0,0,0,0,0,0,0,0,0,0,0,0,0,0,0,0,0,0,0,0,0,0,0,0,0,0,0,0,0,0,0,0,0,0,0,0,0,0,0,0,0,0,0,0,0,0,0],"sum_hessian":[2.6E2,2E0,2.58E2,1E0,1E0,2.35E2,2.3E1,2.16E2,1.9E1,1.4E1,9E0,8.3E1,1.33E2,7E0,1.2E1,5E0,9E0,8E0,1E0,6.3E1,2E1,1.05E2,2.8E1,2E0,5E0,1.1E1,1E0,1E0,4E0,5E0,4E0,3E0,5E0,4.2E1,2.1E1,1.4E1,6E0,6.4E1,4.1E1,1.6E1,1.2E1,2E0,3E0,2E0,9E0,1E0,3E0,2E0,3E0,1E0,2E0,2E0,3E0],"tree_param":{"num_deleted":"0","num_feature":"6","num_nodes":"53","size_leaf_vector":"1"}},{"base_weights":[2.8391105E-1,1.2209751E1,1.4467773E-1,5.6225834E0,-1.28195E-1,1.7772051E0,-2.1955058E-2,3.5444736E-2,2.4923155E0,-6.183373E-2,1.40243E0,4.4822857E-1,-4.2810634E-1,1.0298337E0,3.1964118E0,1.8757865E0,-1.4729555E-1,2.407056E-1,-1.7951965E-2,-4.2154542E-1,2.284858E0,4.1373696E0,1.7227186E0,9.9567205E-1,2.3495309E-1,-2.763616E-1,1.062061E0,1.9277956E-2,-3.968811E-2,1.3729897E-1,1.00513E0,1.8874055E-1,1.4139569E0,3.0152667E-1,7.9663014E-1,-4.011651E-2,-7.118273E-1,5.357192E-2,6.955106E-1],"categories":[],"categories_nodes":[],"categories_segments":[],"categories_sizes":[],"default_left":[0,0,0,0,0,0,0,0,0,0,0,0,0,0,0,0,0,0,0,0,0,0,0,0,0,0,0,0,0,0,0,0,0,0,0,0,0,0,0],"id":20,"left_children":[1,3,5,-1,-1,7,9,11,13,15,-1,17,-1,19,21,23,25,-1,27,-1,29,31,33,-1,-1,35,37,-1,-1,-1,-1,-1,-1,-1,-1,-1,-1,-1,-1],"loss_changes":[4.316173E2,2.5565201E2,7.049545E1,0E0,0E0,2.9804893E1,4.449163E1,5.4690895E0,1.4213593E1,3.919054E1,0E0,1.170002E0,0E0,2.460233E1,8.125999E0,1.3168381E1,3.5569157E1,0E0,4.6102136E-2,0E0,8.201702E0,9.155434E0,1.3471184E0,0E0,0E0,6.0983818E1,2.4004522E1,0E0,0E0,0E0,0E0,0E0,0E0,0E0,0E0,0E0,0E0,0E0,0E0],"parents":[2147483647,0,0,1,1,2,2,5,5,6,6,7,7,8,8,9,9,11,11,13,13,14,14,15,15,16,16,18,18,20,20,21,21,22,22,25,25,26,26],"right_children":[2,4,6,-1,-1,8,10,12,14,16,-1,18,-1,20,22,24,26,-1,28,-1,30,32,34,-1,-1,36,38,-1,-1,-1,-1,-1,-1,-1,-1,-1,-1,-1,-1],"split_conditions":[1.12E0,3.05E2,1.7E0,5.6225834E0,-1.28195E-1,1.52E2,1.92E5,1.35E5,4.82E4,7.8E1,1.40243E0,2.16E2,-4.2810634E-1,1.36E0,1.36E0,4.9E1,4.42E2,2.407056E-1,2.53E2,-4.2154542E-1,4E1,2.6E2,1.25E-2,9.9567205E-1,2.3495309E-1,3.77E2,9.2E-3,1.9277956E-2,-3.968811E-2,1.3729897E-1,1.00513E0,1.8874055E-1,1.4139569E0,3.0152667E-1,7.9663014E-1,-4.011651E-2,-7.118273E-1,5.357192E-2,6.955106E-1],"split_indices":[5,0,5,0,0,0,4,4,4,1,0,1,0,5,5,2,1,0,1,0,2,1,3,0,0,1,3,0,0,0,0,0,0,0,0,0,0,0,0],"split_type":[0,0,0,0,0,0,0,0,0,0,0,0,0,0,0,0,0,0,0,0,0,0,0,0,0,0,0,0,0,0,0,0,0,0,0,0,0,0,0],"sum_hessian":[2.6E2,2E0,2.58E2,1E0,1E0,2.3E1,2.35E2,7E0,1.6E1,2.34E2,1E0,6E0,1E0,6E0,1E1,9E0,2.25E2,3E0,3E0,2E0,4E0,5E0,5E0,3E0,6E0,2.04E2,2.1E1,2E0,1E0,2E0,2E0,1E0,4E0,4E0,1E0,1.92E2,1.2E1,1.3E1,8E0],"tree_param":{"num_deleted":"0","num_feature":"6","num_nodes":"39","size_leaf_vector":"1"}},{"base_weights":[2.4218005E-1,1.0378297E1,1.2383822E-1,4.7791996E0,-1.08965494E-1,1.2141893E0,-3.5216495E-2,-4.6353403E-1,2.0741205E0,-2.437232E0,5.2289598E-2,-1.4205887E0,2.8811595E0,5.9136405E0,1.3944867E0,-8.970471E-1,2.1498643E-1,2.1066604E0,-8.6905956E-2,6.652212E-1,-6.5092187E0,-1.8423843E-1,1.4807602E0,2.2131959E-1,2.4398186E0,3.4763753E-1,2.4065719E0,4.096134E0,-4.6797562E-1,-1.2271662E0,6.9342196E-2,-1.506093E-1,5.8739436E-1,1.22800834E-1,-3.0519495E0,1.8749839E-1,-3.6389008E-1,8.035701E-1,-6.2072757E-3,1.6681253E0,-5.934296E-2,-1.8017483E0,8.8449925E-1,-6.0567707E-1,-1.0230342E-1,5.423027E-2,-5.62918E-1],"categories":[],"categories_nodes":[],"categories_segments":[],"categories_sizes":[],"default_left":[0,0,0,0,0,0,0,0,0,0,0,0,0,0,0,0,0,0,0,0,0,0,0,0,0,0,0,0,0,0,0,0,0,0,0,0,0,0,0,0,0,0,0,0,0,0,0],"id":21,"left_children":[1,3,5,-1,-1,7,9,11,13,15,17,19,21,23,25,-1,-1,27,29,31,33,-1,-1,-1,-1,35,37,39,41,43,45,-1,-1,-1,-1,-1,-1,-1,-1,-1,-1,-1,-1,-1,-1,-1,-1],"loss_changes":[3.117912E2,1.847088E2,4.4959957E1,0E0,0E0,4.8571415E1,4.7840797E1,4.2505596E1,4.9161804E1,1.6093567E1,6.3094116E1,1.1046922E2,2.457664E1,2.8457626E1,2.0353397E1,0E0,0E0,7.362727E1,3.696495E1,1.305478E1,8.021186E1,0E0,0E0,0E0,0E0,5.51939E0,6.657448E0,5.1400314E1,1.5014017E2,1.6852013E1,4.0014378E1,0E0,0E0,0E0,0E0,0E0,0E0,0E0,0E0,0E0,0E0,0E0,0E0,0E0,0E0,0E0,0E0],"parents":[2147483647,0,0,1,1,2,2,5,5,6,6,7,7,8,8,9,9,10,10,11,11,12,12,13,13,14,14,17,17,18,18,19,19,20,20,25,25,26,26,27,27,28,28,29,29,30,30],"right_children":[2,4,6,-1,-1,8,10,12,14,16,18,20,22,24,26,-1,-1,28,30,32,34,-1,-1,-1,-1,36,38,40,42,44,46,-1,-1,-1,-1,-1,-1,-1,-1,-1,-1,-1,-1,-1,-1,-1,-1],"split_conditions":[1.12E0,3.05E2,1.78E0,4.7791996E0,-1.08965494E-1,5.2E-3,2E0,2.53E2,2.66E1,1.92E-2,2.4E0,5.1E-3,9.4E4,9.4E4,1.37E-2,-8.970471E-1,2.1498643E-1,9.4E4,2.95E1,9.4E4,9.4E4,-1.8423843E-1,1.4807602E0,2.2131959E-1,2.4398186E0,1.35E5,1.111E3,4.17E1,3.9E-3,8.8E-3,1.462E5,-1.506093E-1,5.8739436E-1,1.22800834E-1,-3.0519495E0,1.8749839E-1,-3.6389008E-1,8.035701E-1,-6.2072757E-3,1.6681253E0,-5.934296E-2,-1.8017483E0,8.8449925E-1,-6.0567707E-1,-1.0230342E-1,5.423027E-2,-5.62918E-1],"split_indices":[5,0,5,0,0,3,5,1,2,3,5,3,4,4,3,0,0,4,2,4,4,0,0,0,0,4,1,2,3,3,4,0,0,0,0,0,0,0,0,0,0,0,0,0,0,0,0],"split_type":[0,0,0,0,0,0,0,0,0,0,0,0,0,0,0,0,0,0,0,0,0,0,0,0,0,0,0,0,0,0,0,0,0,0,0,0,0,0,0,0,0,0,0,0,0,0,0],"sum_hessian":[2.6E2,2E0,2.58E2,1E0,1E0,3.2E1,2.26E2,1.1E1,2.1E1,7E0,2.19E2,9E0,2E0,2E0,1.9E1,6E0,1E0,1.3E1,2.06E2,7E0,2E0,1E0,1E0,1E0,1E0,1E1,9E0,7E0,6E0,2.4E1,1.82E2,4E0,3E0,1E0,1E0,9E0,1E0,8E0,1E0,5E0,2E0,2E0,4E0,1.2E1,1.2E1,1.73E2,9E0],"tree_param":{"num_deleted":"0","num_feature":"6","num_nodes":"47","size_leaf_vector":"1"}},{"base_weights":[1.9078805E-1,8.821561E0,9.0081066E-2,4.062323E0,-9.262047E-2,5.7445623E-2,1.2765038E0,-2.1579998E-2,1.6792692E0,4.94759E-2,-1.7105525E0,3.7116852E0,9.016174E-1,-2.263367E-2,4.2735443E0,-3.532572E0,8.179817E-1,9.360352E-2,1.5766549E0,-8.135986E-2,2.3964233E0,-3.765545E-2,3.912276E-1,-3.679985E-1,1.9547501E0,4.2763484E-1,-1.4427799E0,-6.035197E-1,6.08503E-1,4.5073014E-1,-1.7871933E-1,9.62085E-1,-5.2734376E-3],"categories":[],"categories_nodes":[],"categories_segments":[],"categories_sizes":[],"default_left":[0,0,0,0,0,0,0,0,0,0,0,0,0,0,0,0,0,0,0,0,0,0,0,0,0,0,0,0,0,0,0,0,0],"id":22,"left_children":[1,3,5,-1,-1,7,-1,9,11,13,15,17,19,21,23,25,27,-1,-1,29,31,-1,-1,-1,-1,-1,-1,-1,-1,-1,-1,-1,-1],"loss_changes":[2.260611E2,1.3345235E2,3.495998E1,0E0,0E0,3.3102966E1,0E0,2.9727463E1,1.5619625E1,7.259052E1,4.895997E1,1.4105778E1,1.4888576E1,3.2241062E1,5.732493E1,4.4834633E1,2.1205368E1,0E0,0E0,6.5976515E0,7.88282E0,0E0,0E0,0E0,0E0,0E0,0E0,0E0,0E0,0E0,0E0,0E0,0E0],"parents":[2147483647,0,0,1,1,2,2,5,5,7,7,8,8,9,9,10,10,11,11,12,12,13,13,14,14,15,15,16,16,19,19,20,20],"right_children":[2,4,6,-1,-1,8,-1,10,12,14,16,18,20,22,24,26,28,-1,-1,30,32,-1,-1,-1,-1,-1,-1,-1,-1,-1,-1,-1,-1],"split_conditions":[1.12E0,3.05E2,1.92E5,4.062323E0,-9.262047E-2,8.57E2,1.2765038E0,6.29E0,6E-3,1E3,1.71E-2,4.57E2,4.8E4,7.42E1,9.1E-3,1.41E2,8E1,9.360352E-2,1.5766549E0,8.8E2,1.111E3,-3.765545E-2,3.912276E-1,-3.679985E-1,1.9547501E0,4.2763484E-1,-1.4427799E0,-6.035197E-1,6.08503E-1,4.5073014E-1,-1.7871933E-1,9.62085E-1,-5.2734376E-3],"split_indices":[5,0,4,0,0,1,0,5,3,0,3,0,4,2,3,1,1,0,0,1,1,0,0,0,0,0,0,0,0,0,0,0,0],"split_type":[0,0,0,0,0,0,0,0,0,0,0,0,0,0,0,0,0,0,0,0,0,0,0,0,0,0,0,0,0,0,0,0,0],"sum_hessian":[2.6E2,2E0,2.58E2,1E0,1E0,2.57E2,1E0,2.46E2,1.1E1,2.37E2,9E0,2E0,9E0,2.34E2,3E0,5E0,4E0,1E0,1E0,6E0,3E0,2.18E2,1.6E1,1E0,2E0,1E0,4E0,1E0,3E0,1E0,5E0,2E0,1E0],"tree_param":{"num_deleted":"0","num_feature":"6","num_nodes":"33","size_leaf_vector":"1"}},{"base_weights":[1.683237E-1,7.4983087E0,8.277049E-2,3.4529665E0,-7.872734E-2,-1.3566067E0,1.5819208E-1,-1.8115141E0,1.1981344E-1,-1.2997365E-1,6.9917643E-1,-2.3553426E0,2.4253337E-1,-2.664677E-1,2.255705E-1,-1.3923666E0,1.7907541E-2,3.9891618E-1,3.223746E0,-1.6607323E-1,-2.5336552E0,1.3423921E-3,1.0779763E-1,-1.0979562E0,-8.460448E-1,4.3820465E-1,-7.5028735E-1,5.733046E-1,-1.2455689E0,1.9525784E0,1.3554186E0,-8.1993365E-1,-2.0053712E-1,1.5716149E-1,-4.175463E-1,3.2357684E-1,-1.526935E-1,-2.275216E0,-6.841725E-3,-3.3537012E-1,3.0225027E-1,-2.9149172E-1,7.4417084E-1],"categories":[],"categories_nodes":[],"categories_segments":[],"categories_sizes":[],"default_left":[0,0,0,0,0,0,0,0,0,0,0,0,0,0,0,0,0,0,0,0,0,0,0,0,0,0,0,0,0,0,0,0,0,0,0,0,0,0,0,0,0,0,0],"id":23,"left_children":[1,3,5,-1,-1,7,9,11,13,15,17,19,21,-1,-1,23,25,27,29,-1,31,-1,-1,-1,33,35,37,39,-1,-1,41,-1,-1,-1,-1,-1,-1,-1,-1,-1,-1,-1,-1],"loss_changes":[1.6305342E2,9.641884E1,2.8331675E1,0E0,0E0,8.948296E0,3.8596485E1,1.1741745E1,3.2165365E0,3.0267769E1,6.39044E1,1.1676445E0,8.180225E-2,0E0,0E0,1.7962822E1,4.7467815E1,6.428181E1,4.641268E1,0E0,7.7721786E-1,0E0,0E0,0E0,1.1944152E1,5.8172333E1,2.5834183E2,5.6934227E1,0E0,0E0,2.0738256E1,0E0,0E0,0E0,0E0,0E0,0E0,0E0,0E0,0E0,0E0,0E0,0E0],"parents":[2147483647,0,0,1,1,2,2,5,5,6,6,7,7,8,8,9,9,10,10,11,11,12,12,15,15,16,16,17,17,18,18,20,20,24,24,25,25,26,26,27,27,30,30],"right_children":[2,4,6,-1,-1,8,10,12,14,16,18,20,22,-1,-1,24,26,28,30,-1,32,-1,-1,-1,34,36,38,40,-1,-1,42,-1,-1,-1,-1,-1,-1,-1,-1,-1,-1,-1,-1],"split_conditions":[1.12E0,3.05E2,3.2E-3,3.4529665E0,-7.872734E-2,3.54E0,8.07E4,4.05E2,1.88E2,2.96E1,2.54E2,2.27E1,2.54E2,-2.664677E-1,2.255705E-1,2.59E0,4.36E1,3.6E2,2.06E2,-1.6607323E-1,1.46E5,1.3423921E-3,1.0779763E-1,-1.0979562E0,2.56E1,4.63E4,4.6E1,2.15E2,-1.2455689E0,1.9525784E0,4.4E-3,-8.1993365E-1,-2.0053712E-1,1.5716149E-1,-4.175463E-1,3.2357684E-1,-1.526935E-1,-2.275216E0,-6.841725E-3,-3.3537012E-1,3.0225027E-1,-2.9149172E-1,7.4417084E-1],"split_indices":[5,0,3,0,0,5,4,1,1,2,0,2,0,0,0,5,2,1,1,0,4,0,0,0,2,4,2,1,0,0,3,0,0,0,0,0,0,0,0,0,0,0,0],"split_type":[0,0,0,0,0,0,0,0,0,0,0,0,0,0,0,0,0,0,0,0,0,0,0,0,0,0,0,0,0,0,0,0,0,0,0,0,0,0,0,0,0,0,0],"sum_hessian":[2.6E2,2E0,2.58E2,1E0,1E0,1.2E1,2.46E2,9E0,3E0,1.61E2,8.5E1,7E0,2E0,1E0,2E0,1.6E1,1.45E2,7.7E1,8E0,1E0,6E0,1E0,1E0,2E0,1.4E1,9.4E1,5.1E1,7.5E1,2E0,2E0,6E0,5E0,1E0,4E0,1E1,5.6E1,3.8E1,4E0,4.7E1,1.5E1,6E1,2E0,4E0],"tree_param":{"num_deleted":"0","num_feature":"6","num_nodes":"43","size_leaf_vector":"1"}},{"base_weights":[1.1749331E-1,6.3735504E0,4.4575687E-2,2.935016E0,-6.691819E-2,4.347076E-1,-2.0352432E-1,3.0793202E-1,1.96684E0,-1.2641685E0,1.06045954E-1,1.362559E0,-1.00800656E-1,9.0365046E-1,-2.1327007E0,-3.6211252E-1,1.0626134E0,-1.5249237E0,3.051434E0,4.8947617E-1,-1.0132716E0,1.2916192E0,1.3293609E-1,-4.522667E0,-1.0141519E0,1.1700249E0,-5.6156933E-1,1.14698745E-1,2.1541622E0,-7.962028E-1,-4.2505268E-2,3.1317806E0,6.008343E-1,-1.2171232E-1,3.303875E-1,-7.6604205E-1,-9.14802E-2,6.3675386E-1,-9.718883E-2,-2.641627E-1,-1.9595499E0,-5.177255E-1,1.0068893E0,7.694567E-1,6.1749708E-2,2.8316718E-1,-2.589918E-1,3.4363902E-1,-8.9901346E-1,3.135761E-1,1.0644764E0],"categories":[],"categories_nodes":[],"categories_segments":[],"categories_sizes":[],"default_left":[0,0,0,0,0,0,0,0,0,0,0,0,0,0,0,0,0,0,0,0,0,0,0,0,0,0,0,0,0,0,0,0,0,0,0,0,0,0,0,0,0,0,0,0,0,0,0,0,0,0,0],"id":24,"left_children":[1,3,5,-1,-1,7,9,11,-1,13,15,17,19,21,23,25,27,29,31,33,35,-1,37,39,41,43,45,47,49,-1,-1,-1,-1,-1,-1,-1,-1,-1,-1,-1,-1,-1,-1,-1,-1,-1,-1,-1,-1,-1,-1],"loss_changes":[1.18778046E2,6.966238E1,2.5157534E1,0E0,0E0,7.636194E1,5.2340744E1,4.32434E1,0E0,6.9708755E1,5.5915104E1,1.4119792E2,3.9814537E1,2.8267181E1,6.491897E1,2.6327051E1,4.2175415E1,1.6803719E1,1.18543396E2,2.5092733E1,3.0859867E1,0E0,9.777968E0,5.2789505E1,6.4882355E1,1.2920923E1,3.4883797E1,7.719665E1,2.5663673E1,0E0,0E0,0E0,0E0,0E0,0E0,0E0,0E0,0E0,0E0,0E0,0E0,0E0,0E0,0E0,0E0,0E0,0E0,0E0,0E0,0E0,0E0],"parents":[2147483647,0,0,1,1,2,2,5,5,6,6,7,7,9,9,10,10,11,11,12,12,13,13,14,14,15,15,16,16,17,17,18,18,19,19,20,20,22,22,23,23,24,24,25,25,26,26,27,27,28,28],"right_children":[2,4,6,-1,-1,8,10,12,-1,14,16,18,20,22,24,26,28,30,32,34,36,-1,38,40,42,44,46,48,50,-1,-1,-1,-1,-1,-1,-1,-1,-1,-1,-1,-1,-1,-1,-1,-1,-1,-1,-1,-1,-1,-1],"split_conditions":[1.12E0,3.05E2,2.9E0,2.935016E0,-6.691819E-2,2.75E0,3.11E0,4.635E4,1.96684E0,3.21E1,4.82E4,3.73E1,2.4E0,6E-3,4.23E4,7.8E1,7.7E-3,2.59E0,3.76E1,6.1E-3,2.23E2,1.2916192E0,3.7E2,2.03E2,4.47E1,4.9E1,3.4E0,5.1E-3,1.52E2,-7.962028E-1,-4.2505268E-2,3.1317806E0,6.008343E-1,-1.2171232E-1,3.303875E-1,-7.6604205E-1,-9.14802E-2,6.3675386E-1,-9.718883E-2,-2.641627E-1,-1.9595499E0,-5.177255E-1,1.0068893E0,7.694567E-1,6.1749708E-2,2.8316718E-1,-2.589918E-1,3.4363902E-1,-8.9901346E-1,3.135761E-1,1.0644764E0],"split_indices":[5,0,5,0,0,5,5,4,0,2,4,2,5,3,4,1,3,5,2,3,1,0,1,0,2,2,5,3,0,0,0,0,0,0,0,0,0,0,0,0,0,0,0,0,0,0,0,0,0,0,0],"split_type":[0,0,0,0,0,0,0,0,0,0,0,0,0,0,0,0,0,0,0,0,0,0,0,0,0,0,0,0,0,0,0,0,0,0,0,0,0,0,0,0,0,0,0,0,0,0,0,0,0,0,0],"sum_hessian":[2.6E2,2E0,2.58E2,1E0,1E0,1E2,1.58E2,9.9E1,1E0,3.5E1,1.23E2,2.7E1,7.2E1,1E1,2.5E1,8.3E1,4E1,1E1,1.7E1,4.4E1,2.8E1,1E0,9E0,7E0,1.8E1,9E0,7.4E1,2.2E1,1.8E1,5E0,5E0,1E0,1.6E1,1.8E1,2.6E1,8E0,2E1,1E0,8E0,3E0,4E0,1.6E1,2E0,3E0,6E0,1.2E1,6.2E1,1.7E1,5E0,1.1E1,7E0],"tree_param":{"num_deleted":"0","num_feature":"6","num_nodes":"51","size_leaf_vector":"1"}},{"base_weights":[1.1617096E-1,5.4175034E0,5.4317027E-2,2.4947572E0,-5.688057E-2,-1.1059573E0,1.1516419E-1,-1.3403407E0,3.663025E-2,-1.4208835E0,1.5930183E-1,-1.7509265E0,-1.8408394E-1,-1.6237278E-1,-4.9934745E-1,-5.11461E-1,2.6444954E-1,-1.9126799E0,-9.279785E-2,-2.780434E-1,1.11728676E-1,-6.8683934E-1,7.650971E-1,2.1043773E-1,2.056776E0,-1.2744027E-1,-6.2695795E-1,-1.23269886E-1,-7.547079E-1,1.6632316E-1,-1.1974802E-2,-7.514763E-3,1.2440854E0],"categories":[],"categories_nodes":[],"categories_segments":[],"categories_sizes":[],"default_left":[0,0,0,0,0,0,0,0,0,0,0,0,0,0,0,0,0,0,0,0,0,0,0,0,0,0,0,0,0,0,0,0,0],"id":25,"left_children":[1,3,5,-1,-1,7,9,11,-1,13,15,17,19,-1,-1,21,23,25,-1,-1,-1,27,-1,29,31,-1,-1,-1,-1,-1,-1,-1,-1],"loss_changes":[8.528979E1,5.033082E1,1.8412615E1,0E0,0E0,3.905528E0,1.6972336E1,4.8998528E0,0E0,5.991192E-1,1.7132786E1,1.2738285E0,1.9985204E0,0E0,0E0,1.9471699E1,1.9799795E1,9.5758057E-1,0E0,0E0,0E0,1.5115209E1,0E0,1.7589565E1,2.6212154E1,0E0,0E0,0E0,0E0,0E0,0E0,0E0,0E0],"parents":[2147483647,0,0,1,1,2,2,5,5,6,6,7,7,9,9,10,10,11,11,12,12,15,15,16,16,17,17,21,21,23,23,24,24],"right_children":[2,4,6,-1,-1,8,10,12,-1,14,16,18,20,-1,-1,22,24,26,-1,-1,-1,28,-1,30,32,-1,-1,-1,-1,-1,-1,-1,-1],"split_conditions":[1.12E0,3.05E2,3.2E-3,2.4947572E0,-5.688057E-2,4.05E2,1.3E2,3.54E0,3.663025E-2,3.29E1,4.03E4,1.46E5,1.88E2,-1.6237278E-1,-4.9934745E-1,6.45E0,8.14E1,2.27E1,-9.279785E-2,-2.780434E-1,1.11728676E-1,6.29E0,7.650971E-1,8E-3,7.8E1,-1.2744027E-1,-6.2695795E-1,-1.23269886E-1,-7.547079E-1,1.6632316E-1,-1.1974802E-2,-7.514763E-3,1.2440854E0],"split_indices":[5,0,3,0,0,1,0,5,0,2,4,4,1,0,0,5,2,2,0,0,0,5,0,3,1,0,0,0,0,0,0,0,0],"split_type":[0,0,0,0,0,0,0,0,0,0,0,0,0,0,0,0,0,0,0,0,0,0,0,0,0,0,0,0,0,0,0,0,0],"sum_hessian":[2.6E2,2E0,2.58E2,1E0,1E0,1.2E1,2.46E2,1E1,2E0,6E0,2.4E2,7E0,3E0,2E0,4E0,3.2E1,2.08E2,6E0,1E0,1E0,2E0,3.1E1,1E0,2.03E2,5E0,1E0,5E0,2.8E1,3E0,8.5E1,1.18E2,3E0,2E0],"tree_param":{"num_deleted":"0","num_feature":"6","num_nodes":"33","size_leaf_vector":"1"}},{"base_weights":[8.927903E-2,4.60488E0,3.6630068E-2,2.1205444E0,-4.834843E-2,-1.8930233E-1,4.488041E-1,9.9642545E-2,-7.248046E-1,3.296724E-1,8.9618516E-1,-1.3149346E-1,1.8343877E0,-3.9371397E0,-2.1666065E-1,5.74516E-1,-3.979012E-1,3.5838675E-2,-9.7531176E-1,6.615092E0,3.6379674E-1,-1.3506241E0,-1.5656774E0,-1.1713386E0,7.830687E-1,1.3361058E-1,1.6813502E0,-1.9048733E0,1.2652843E-1,8.618324E-2,-2.1284829E-1,3.3972704E-1,2.6370645E0,2.9641208E-1,-9.632388E-2,-6.4592344E-1,-1.0963402E-1,-6.873997E-1,9.696661E-3,3.632539E-2,6.060088E-1,1.7156346E-1,-4.297182E-1,-2.716675E-1,6.1168814E-1,-8.2692915E-1,3.5293695E-1,4.7118047E-1,-1.6490994E-1],"categories":[],"categories_nodes":[],"categories_segments":[],"categories_sizes":[],"default_left":[0,0,0,0,0,0,0,0,0,0,0,0,0,0,0,0,0,0,0,0,0,0,0,0,0,0,0,0,0,0,0,0,0,0,0,0,0,0,0,0,0,0,0,0,0,0,0,0,0],"id":26,"left_children":[1,3,5,-1,-1,7,9,11,13,15,-1,17,19,21,23,25,27,29,-1,31,33,35,-1,37,39,41,43,45,47,-1,-1,-1,-1,-1,-1,-1,-1,-1,-1,-1,-1,-1,-1,-1,-1,-1,-1,-1,-1],"loss_changes":[6.1881912E1,3.6364044E1,2.4203938E1,0E0,0E0,2.6066969E1,2.6837212E1,4.434704E1,9.545437E1,1.6083216E1,0E0,5.1272537E1,8.8989426E1,1.9474037E1,5.0547054E1,3.247197E1,1.841794E1,1.781995E1,0E0,2.5822174E1,5.0200653E0,2.3754025E0,0E0,3.647256E1,2.1045458E1,3.444928E1,1.9423393E1,1.8986391E1,1.8440773E1,0E0,0E0,0E0,0E0,0E0,0E0,0E0,0E0,0E0,0E0,0E0,0E0,0E0,0E0,0E0,0E0,0E0,0E0,0E0,0E0],"parents":[2147483647,0,0,1,1,2,2,5,5,6,6,7,7,8,8,9,9,11,11,12,12,13,13,14,14,15,15,16,16,17,17,19,19,20,20,21,21,23,23,24,24,25,25,26,26,27,27,28,28],"right_children":[2,4,6,-1,-1,8,10,12,14,16,-1,18,20,22,24,26,28,30,-1,32,34,36,-1,38,40,42,44,46,48,-1,-1,-1,-1,-1,-1,-1,-1,-1,-1,-1,-1,-1,-1,-1,-1,-1,-1,-1,-1],"split_conditions":[1.12E0,3.05E2,1.25E-2,2.1205444E0,-4.834843E-2,8E-3,1.35E5,7.8E-3,8.9E-3,4.32E1,8.9618516E-1,7.4E-3,4.63E4,2.66E0,3.13E0,3.89E1,4.8E1,3.61E0,-9.7531176E-1,3.7E1,2.02E0,1.52E2,-1.5656774E0,5.01E4,4.76E4,2.26E-2,3.9E4,5.53E4,1.54E-2,8.618324E-2,-2.1284829E-1,3.3972704E-1,2.6370645E0,2.9641208E-1,-9.632388E-2,-6.4592344E-1,-1.0963402E-1,-6.873997E-1,9.696661E-3,3.632539E-2,6.060088E-1,1.7156346E-1,-4.297182E-1,-2.716675E-1,6.1168814E-1,-8.2692915E-1,3.5293695E-1,4.7118047E-1,-1.6490994E-1],"split_indices":[5,0,3,0,0,3,4,3,3,2,0,3,4,5,5,2,2,5,0,2,5,0,0,4,4,3,4,4,3,0,0,0,0,0,0,0,0,0,0,0,0,0,0,0,0,0,0,0,0],"split_type":[0,0,0,0,0,0,0,0,0,0,0,0,0,0,0,0,0,0,0,0,0,0,0,0,0,0,0,0,0,0,0,0,0,0,0,0,0,0,0,0,0,0,0,0,0,0,0,0,0],"sum_hessian":[2.6E2,2E0,2.58E2,1E0,1E0,1.67E2,9.1E1,1.09E2,5.8E1,8.8E1,3E0,9.7E1,1.2E1,7E0,5.1E1,6.6E1,2.2E1,9.3E1,4E0,2E0,1E1,3E0,4E0,2.6E1,2.5E1,4.8E1,1.8E1,5E0,1.7E1,7E1,2.3E1,1E0,1E0,5E0,5E0,1E0,2E0,1.3E1,1.3E1,1.7E1,8E0,3.8E1,1E1,2E0,1.6E1,4E0,1E0,5E0,1.2E1],"tree_param":{"num_deleted":"0","num_feature":"6","num_nodes":"49","size_leaf_vector":"1"}},{"base_weights":[7.2460495E-2,3.9141273E0,2.768265E-2,1.8024536E0,-4.1096307E-2,-1.264437E0,6.859247E-2,-1.6022516E0,1.6503984E-1,4.785874E-2,7.909138E-1,-7.6196384E-1,-6.1259294E-1,1.01157844E-1,-1.124227E0,-3.118952E-1,1.0664463E-2,2.8338125E-1,-2.6228818E-1,1.6685028E0,-1.9302229E0,6.1025877E-2,1.3280671E0,-4.499632E-1,5.042008E-2,-4.679638E-1,1.21879E0,-7.9055613E-1,1.0743027E-1],"categories":[],"categories_nodes":[],"categories_segments":[],"categories_sizes":[],"default_left":[0,0,0,0,0,0,0,0,0,0,0,0,0,0,0,0,0,0,0,0,0,0,0,0,0,0,0,0,0],"id":27,"left_children":[1,3,5,-1,-1,7,9,11,-1,13,-1,15,-1,17,19,-1,-1,21,23,25,27,-1,-1,-1,-1,-1,-1,-1,-1],"loss_changes":[4.478927E1,2.6272778E1,1.3777568E1,0E0,0E0,5.7853556E0,1.3290256E1,1.0305557E0,0E0,1.5793976E1,0E0,9.2279196E-1,0E0,1.6035368E1,2.7980795E1,0E0,0E0,5.2442318E1,4.3392906E1,2.9524727E1,1.54623375E1,0E0,0E0,0E0,0E0,0E0,0E0,0E0,0E0],"parents":[2147483647,0,0,1,1,2,2,5,5,6,6,7,7,9,9,11,11,13,13,14,14,17,17,18,18,19,19,20,20],"right_children":[2,4,6,-1,-1,8,10,12,-1,14,-1,16,-1,18,20,-1,-1,22,24,26,28,-1,-1,-1,-1,-1,-1,-1,-1],"split_conditions":[1.12E0,3.05E2,2.41E1,1.8024536E0,-4.1096307E-2,2.54E2,1.92E5,2.27E1,1.6503984E-1,1.462E5,7.909138E-1,9.3E-3,-6.1259294E-1,4.17E1,2.02E0,-3.118952E-1,1.0664463E-2,4.07E1,4.6E1,1.55E0,3.11E0,6.1025877E-2,1.3280671E0,-4.499632E-1,5.042008E-2,-4.679638E-1,1.21879E0,-7.9055613E-1,1.0743027E-1],"split_indices":[5,0,2,0,0,0,4,2,0,4,0,3,0,2,5,0,0,2,2,5,5,0,0,0,0,0,0,0,0],"split_type":[0,0,0,0,0,0,0,0,0,0,0,0,0,0,0,0,0,0,0,0,0,0,0,0,0,0,0,0,0],"sum_hessian":[2.6E2,2E0,2.58E2,1E0,1E0,7E0,2.51E2,6E0,1E0,2.5E2,1E0,3E0,3E0,2.4E2,1E1,2E0,1E0,1.6E2,8E1,2E0,8E0,1.58E2,2E0,2E1,6E1,1E0,1E0,6E0,2E0],"tree_param":{"num_deleted":"0","num_feature":"6","num_nodes":"29","size_leaf_vector":"1"}},{"base_weights":[6.1683E-2,-2.409527E-2,1.5767778E0,8.689309E-3,-2.0261269E0,9.1238636E-1,1.5320802E0,-4.225796E-2,1.0963184E0,-3.2197926E0,2.332306E-1,2.4154713E0,4.195099E-1,3.1542234E-2,-1.1267637E0,1.6704928E0,3.3942413E-1,-1.1892849E0,-2.5962183E-1,3.6115266E-2,1.0508469E0,9.7301376E-1,-4.392975E-1,-3.329644E-1,2.5746575E-1,-1.788784E-1,-2.5187786E0,7.127049E-1,1.7340851E-1,-4.0912881E-1,2.4479486E-1,4.8980716E-1,7.008362E-2,-2.4639132E-2,-1.52417E-1,-1.3104455E-2,-4.7333002E-1,5.876353E-1,2.3540672E-2,-2.9538825E-1,2.4713884E-1,-9.362362E-1,7.3689654E-2,6.393585E-2,1.4097977E-2,-1.5230256E-1,-3.1805422E-2,-2.6325074E-1,4.3692628E-1],"categories":[],"categories_nodes":[],"categories_segments":[],"categories_sizes":[],"default_left":[0,0,0,0,0,0,0,0,0,0,0,0,0,0,0,0,0,0,0,0,0,0,0,0,0,0,0,0,0,0,0,0,0,0,0,0,0,0,0,0,0,0,0,0,0,0,0,0,0],"id":28,"left_children":[1,3,5,7,9,11,-1,13,15,17,-1,19,21,23,25,27,29,-1,-1,-1,-1,31,33,35,37,39,41,-1,43,45,-1,-1,47,-1,-1,-1,-1,-1,-1,-1,-1,-1,-1,-1,-1,-1,-1,-1,-1],"loss_changes":[3.3958134E1,1.6295277E1,2.8176178E1,1.3622203E1,1.5889244E1,8.617544E0,0E0,1.8844173E1,4.213475E0,1.8277416E0,0E0,7.065014E0,5.6563277E0,1.8285213E1,1.93415E1,5.922411E0,2.4742186E0,0E0,0E0,0E0,0E0,4.0550685E0,8.1065655E-2,3.0539577E1,4.1566994E1,8.890171E0,1.0751755E1,0E0,5.045049E-3,3.5788655E-2,0E0,0E0,6.532709E0,0E0,0E0,0E0,0E0,0E0,0E0,0E0,0E0,0E0,0E0,0E0,0E0,0E0,0E0,0E0,0E0],"parents":[2147483647,0,0,1,1,2,2,3,3,4,4,5,5,7,7,8,8,9,9,11,11,12,12,13,13,14,14,15,15,16,16,21,21,22,22,23,23,24,24,25,25,26,26,28,28,29,29,32,32],"right_children":[2,4,6,8,10,12,-1,14,16,18,-1,20,22,24,26,28,30,-1,-1,-1,-1,32,34,36,38,40,42,-1,44,46,-1,-1,48,-1,-1,-1,-1,-1,-1,-1,-1,-1,-1,-1,-1,-1,-1,-1,-1],"split_conditions":[7.34E2,5.84E2,5E1,4.55E2,3.73E1,6E-3,1.5320802E0,3.77E2,5.01E2,5.94E2,2.332306E-1,4.57E2,4.57E2,4.23E4,5.19E4,4.13E1,4E1,-1.1892849E0,-2.5962183E-1,3.6115266E-2,1.0508469E0,1.097E3,8.83E2,2.91E2,4.635E4,3.73E1,3.54E0,7.127049E-1,2.54E2,3.01E2,2.4479486E-1,4.8980716E-1,1.3E5,-2.4639132E-2,-1.52417E-1,-1.3104455E-2,-4.7333002E-1,5.876353E-1,2.3540672E-2,-2.9538825E-1,2.4713884E-1,-9.362362E-1,7.3689654E-2,6.393585E-2,1.4097977E-2,-1.5230256E-1,-3.1805422E-2,-2.6325074E-1,4.3692628E-1],"split_indices":[1,1,2,1,2,3,0,1,1,1,0,0,0,4,4,2,2,0,0,0,0,1,1,1,4,2,5,0,0,0,0,0,4,0,0,0,0,0,0,0,0,0,0,0,0,0,0,0,0],"split_type":[0,0,0,0,0,0,0,0,0,0,0,0,0,0,0,0,0,0,0,0,0,0,0,0,0,0,0,0,0,0,0,0,0,0,0,0,0,0,0,0,0,0,0,0,0,0,0,0,0],"sum_hessian":[2.6E2,2.47E2,1.3E1,2.44E2,3E0,1.2E1,1E0,2.34E2,1E1,2E0,1E0,2E0,1E1,2.2E2,1.4E1,5E0,5E0,1E0,1E0,1E0,1E0,6E0,4E0,8.4E1,1.36E2,9E0,5E0,3E0,2E0,2E0,3E0,3E0,3E0,1E0,3E0,6.9E1,1.5E1,1.2E1,1.24E2,5E0,4E0,4E0,1E0,1E0,1E0,1E0,1E0,2E0,1E0],"tree_param":{"num_deleted":"0","num_feature":"6","num_nodes":"49","size_leaf_vector":"1"}},{"base_weights":[5.0668497E-2,-2.1505518E-2,1.3255605E0,6.3488316E-3,-1.722208E0,7.5969875E-1,1.3022645E0,-1.1896861E-2,6.687447E-1,-2.736824E0,1.9824602E-1,2.0531514E0,3.3787537E-1,-5.136984E-2,1.0244942E0,-1.0108922E0,-2.2067872E-1,3.0697633E-2,8.9322054E-1,7.758876E-1,-3.4291688E-1,3.4787084E-3,-1.1735882E0,7.7151686E-1,2.1503994E-1,3.7960055E-1,9.246826E-2,-2.0942688E-2,-1.1812249E-1,-1.3778479E-2,8.2711434E-1,-7.883969E-1,-1.6751671E-1,-2.8469583E-1,2.6113427E-1,-2.1060182E-1,3.7138367E-1],"categories":[],"categories_nodes":[],"categories_segments":[],"categories_sizes":[],"default_left":[0,0,0,0,0,0,0,0,0,0,0,0,0,0,0,0,0,0,0,0,0,0,0,0,0,0,0,0,0,0,0,0,0,0,0,0,0],"id":29,"left_children":[1,3,5,7,9,11,-1,13,-1,15,-1,17,19,21,23,-1,-1,-1,-1,25,27,29,31,-1,33,-1,35,-1,-1,-1,-1,-1,-1,-1,-1,-1,-1],"loss_changes":[2.4044178E1,1.1759181E1,2.0589804E1,9.962869E0,1.147998E1,6.399202E0,0E0,1.0034532E1,0E0,1.3205376E0,0E0,5.1044893E0,3.5462136E0,1.4530364E1,1.0718674E1,0E0,0E0,0E0,0E0,2.224482E0,4.191649E-2,3.087291E1,8.374769E0,0E0,6.166423E0,0E0,4.5092545E0,0E0,0E0,0E0,0E0,0E0,0E0,0E0,0E0,0E0,0E0],"parents":[2147483647,0,0,1,1,2,2,3,3,4,4,5,5,7,7,9,9,11,11,12,12,13,13,14,14,19,19,20,20,21,21,22,22,24,24,26,26],"right_children":[2,4,6,8,10,12,-1,14,-1,16,-1,18,20,22,24,-1,-1,-1,-1,26,28,30,32,-1,34,-1,36,-1,-1,-1,-1,-1,-1,-1,-1,-1,-1],"split_conditions":[7.34E2,5.84E2,5E1,1.92E5,3.73E1,6E-3,1.3022645E0,2.56E-2,6.687447E-1,5.94E2,1.9824602E-1,4.57E2,4.57E2,2.27E-2,2.61E-2,-1.0108922E0,-2.2067872E-1,3.0697633E-2,8.9322054E-1,1.097E3,8.83E2,2.11E-2,1.59E2,7.7151686E-1,4.23E4,3.7960055E-1,1.3E5,-2.0942688E-2,-1.1812249E-1,-1.3778479E-2,8.2711434E-1,-7.883969E-1,-1.6751671E-1,-2.8469583E-1,2.6113427E-1,-2.1060182E-1,3.7138367E-1],"split_indices":[1,1,2,4,2,3,0,3,0,1,0,0,0,3,3,0,0,0,0,1,1,3,0,0,4,0,4,0,0,0,0,0,0,0,0,0,0],"split_type":[0,0,0,0,0,0,0,0,0,0,0,0,0,0,0,0,0,0,0,0,0,0,0,0,0,0,0,0,0,0,0,0,0,0,0,0,0],"sum_hessian":[2.6E2,2.47E2,1.3E1,2.44E2,3E0,1.2E1,1E0,2.43E2,1E0,2E0,1E0,2E0,1E1,2.35E2,8E0,1E0,1E0,1E0,1E0,6E0,4E0,2.25E2,1E1,2E0,6E0,3E0,3E0,1E0,3E0,2.22E2,3E0,2E0,8E0,2E0,4E0,2E0,1E0],"tree_param":{"num_deleted":"0","num_feature":"6","num_nodes":"37","size_leaf_vector":"1"}},{"base_weights":[4.645762E-2,-1.408314E-2,1.1155756E0,8.9679605E-1,-5.2136313E-2,6.3373387E-1,1.1069275E0,5.908705E-1,1.5566961E-1,-1.2728074E0,1.1630183E-3,1.7451782E0,2.7300054E-1,8.233109E-2,-2.0151138E-3,-3.169632E-1,-1.8572096E0,-2.417322E-2,8.704743E-1,2.6092531E-2,7.592377E-1,-6.8647385E-2,8.8804626E-1,-3.3827975E-2,4.9532894E-2,3.492615E-1,-5.0774306E-1,-9.17762E-1,6.229162E-1,1.3056834E0,-6.58092E-2,2.2249757E-1,-4.623591E-1,3.8020632E-1,-3.748169E-2,-3.2140818E-1,5.6412524E-1,-6.5975E-2,1.0137605E-1,-1.7800141E-2,-1.5932924E-1],"categories":[],"categories_nodes":[],"categories_segments":[],"categories_sizes":[],"default_left":[0,0,0,0,0,0,0,0,0,0,0,0,0,0,0,0,0,0,0,0,0,0,0,0,0,0,0,0,0,0,0,0,0,0,0,0,0,0,0,0,0],"id":30,"left_children":[1,3,5,7,9,11,-1,-1,13,15,17,19,21,-1,23,25,27,29,-1,-1,-1,31,33,-1,-1,-1,-1,-1,-1,35,37,-1,39,-1,-1,-1,-1,-1,-1,-1,-1],"loss_changes":[1.690899E1,8.642894E0,1.502655E1,7.6439953E0,1.5551046E1,4.735721E0,0E0,0E0,1.3164759E-1,4.9973087E0,1.6971848E1,3.6880064E0,2.3723822E0,0E0,9.265053E-2,1.2157226E1,3.4721123E1,1.2765629E1,0E0,0E0,0E0,2.8951283E0,1.6952758E0,0E0,0E0,0E0,0E0,0E0,0E0,1.1577784E1,1.3948865E1,0E0,1.3470757E-1,0E0,0E0,0E0,0E0,0E0,0E0,0E0,0E0],"parents":[2147483647,0,0,1,1,2,2,3,3,4,4,5,5,8,8,9,9,10,10,11,11,12,12,14,14,15,15,16,16,17,17,21,21,22,22,29,29,30,30,32,32],"right_children":[2,4,6,8,10,12,-1,-1,14,16,18,20,22,-1,24,26,28,30,-1,-1,-1,32,34,-1,-1,-1,-1,-1,-1,36,38,-1,40,-1,-1,-1,-1,-1,-1,-1,-1],"split_conditions":[7.34E2,7.8E1,5E1,4.9E1,1.04E2,6E-3,1.1069275E0,5.908705E-1,7.96E1,8.2E1,8.83E1,4.57E2,4.8E4,8.233109E-2,7.5E1,7.42E1,7.42E1,1.5E2,8.704743E-1,2.6092531E-2,7.592377E-1,8.8E2,1.111E3,-3.3827975E-2,4.9532894E-2,3.492615E-1,-5.0774306E-1,-9.17762E-1,6.229162E-1,1.3E2,1.42E-2,2.2249757E-1,8.83E2,3.8020632E-1,-3.748169E-2,-3.2140818E-1,5.6412524E-1,-6.5975E-2,1.0137605E-1,-1.7800141E-2,-1.5932924E-1],"split_indices":[1,1,2,2,1,3,0,0,2,1,2,0,4,0,1,2,2,1,0,0,0,1,1,0,0,0,0,0,0,0,3,0,1,0,0,0,0,0,0,0,0],"split_type":[0,0,0,0,0,0,0,0,0,0,0,0,0,0,0,0,0,0,0,0,0,0,0,0,0,0,0,0,0,0,0,0,0,0,0,0,0,0,0,0,0],"sum_hessian":[2.6E2,2.47E2,1.3E1,9E0,2.38E2,1.2E1,1E0,3E0,6E0,9E0,2.29E2,2E0,1E1,3E0,3E0,4E0,5E0,2.28E2,1E0,1E0,1E0,7E0,3E0,2E0,1E0,2E0,2E0,4E0,1E0,6E0,2.22E2,2E0,5E0,2E0,1E0,1E0,5E0,1.61E2,6.1E1,1E0,4E0],"tree_param":{"num_deleted":"0","num_feature":"6","num_nodes":"41","size_leaf_vector":"1"}},{"base_weights":[4.6560235E-2,2.0441868E0,2.3241933E-2,9.408875E-1,-2.1003343E-2,6.36198E-2,-9.8852885E-1,2.6730757E-2,2.325613E0,-1.918513E0,3.2515794E-1,-9.667752E-1,5.9736244E-2,-3.0467033E-1,1.1333588E0,2.2701168E-1,-1.2419125E0,-2.216404E-1,3.8421938E-1,-1.251755E0,1.5421258E-1,-7.29725E-2,2.857137E-1,-2.7319708E-1,2.7293608E-1,-1.1341592E-1,-4.576876E-1,1.0928425E-1,-9.322116E-2,3.1827046E-3,3.2240498E-1],"categories":[],"categories_nodes":[],"categories_segments":[],"categories_sizes":[],"default_left":[0,0,0,0,0,0,0,0,0,0,0,0,0,0,0,0,0,0,0,0,0,0,0,0,0,0,0,0,0,0,0],"id":31,"left_children":[1,3,5,-1,-1,7,9,11,13,15,17,19,21,-1,-1,23,-1,-1,-1,25,-1,27,29,-1,-1,-1,-1,-1,-1,-1,-1],"loss_changes":[1.2110198E1,7.1463537E0,1.0643853E1,0E0,0E0,2.0798523E1,1.28408985E1,8.157165E0,2.324559E1,2.9533535E1,6.029661E0,4.019478E0,7.218253E0,0E0,0E0,3.9355912E0,0E0,0E0,0E0,1.0981998E0,0E0,1.5915633E1,1.9305979E1,0E0,0E0,0E0,0E0,0E0,0E0,0E0,0E0],"parents":[2147483647,0,0,1,1,2,2,5,5,6,6,7,7,8,8,9,9,10,10,11,11,12,12,15,15,19,19,21,21,22,22],"right_children":[2,4,6,-1,-1,8,10,12,14,16,18,20,22,-1,-1,24,-1,-1,-1,26,-1,28,30,-1,-1,-1,-1,-1,-1,-1,-1],"split_conditions":[1.12E0,3.05E2,6.29E0,9.408875E-1,-2.1003343E-2,1E3,1.71E-2,2.41E1,9.1E-3,1.46E2,4.5E2,2.54E2,7.12E4,-3.0467033E-1,1.1333588E0,1.3E2,-1.2419125E0,-2.216404E-1,3.8421938E-1,2.8E-3,1.5421258E-1,3.02E0,3.11E0,-2.7319708E-1,2.7293608E-1,-1.1341592E-1,-4.576876E-1,1.0928425E-1,-9.322116E-2,3.1827046E-3,3.2240498E-1],"split_indices":[5,0,5,0,0,0,3,2,3,1,0,0,4,0,0,0,0,0,0,3,0,5,5,0,0,0,0,0,0,0,0],"split_type":[0,0,0,0,0,0,0,0,0,0,0,0,0,0,0,0,0,0,0,0,0,0,0,0,0,0,0,0,0,0,0],"sum_hessian":[2.6E2,2E0,2.58E2,1E0,1E0,2.49E2,9E0,2.46E2,3E0,5E0,4E0,7E0,2.39E2,1E0,2E0,3E0,2E0,2E0,2E0,6E0,1E0,1.51E2,8.8E1,1E0,2E0,2E0,4E0,5.3E1,9.8E1,6.6E1,2.2E1],"tree_param":{"num_deleted":"0","num_feature":"6","num_nodes":"31","size_leaf_vector":"1"}},{"base_weights":[3.4866378E-2,-1.2481276E-2,9.39074E-1,-5.4661256E-1,4.429586E-2,5.7302475E-1,7.997498E-1,1.8801805E-1,-6.817674E-1,2.8255844E0,6.84871E-3,1.5455475E0,2.2396545E-1,-1.0169066E0,-3.177425E-1,2.0428506E-1,1.067228E0,4.8140618E-1,-6.0635846E-2,3.6161043E-2,6.593354E-1,-6.770979E-2,6.7840576E-1,1.1366444E-1,-1.1943735E0,-1.00422665E-1,-9.362278E-1,-1.5533698E-1,1.6430776E0,-2.4869254E0,4.1842848E-2,2.0722963E-1,-3.0924988E-1,2.9291993E-1,-3.233643E-2,-4.0395528E-1,2.6238443E-2,5.595409E-2,-1.7323667E-1,-8.70761E-2,-3.3422643E-1,3.3846572E-1,-3.5741928E-1,7.910685E-1,3.6564387E-2,-1.3217814E0,6.540222E-1,3.6977655E-1,-1.146523E-2,-2.0773317E-1,-2.8236695E-2],"categories":[],"categories_nodes":[],"categories_segments":[],"categories_sizes":[],"default_left":[0,0,0,0,0,0,0,0,0,0,0,0,0,0,0,0,0,0,0,0,0,0,0,0,0,0,0,0,0,0,0,0,0,0,0,0,0,0,0,0,0,0,0,0,0,0,0,0,0,0,0],"id":32,"left_children":[1,3,5,7,9,11,-1,-1,13,15,17,19,21,23,25,-1,-1,27,29,-1,-1,31,33,-1,35,37,39,41,43,45,47,-1,49,-1,-1,-1,-1,-1,-1,-1,-1,-1,-1,-1,-1,-1,-1,-1,-1,-1,-1],"loss_changes":[1.118568E1,7.5754976E0,6.689435E0,4.2332606E0,2.351885E1,3.7274678E0,0E0,0E0,2.3608637E0,2.286169E0,7.202858E0,2.5234203E0,1.3714247E0,3.1772938E0,1.5188907E0,0E0,0E0,2.0966448E1,4.9086727E1,0E0,0E0,1.4960341E0,1.0423683E0,0E0,2.0680046E0,1.4764837E0,2.1311522E-2,2.6611149E1,1.4796524E1,8.125351E1,1.8160076E1,0E0,4.2943913E-1,0E0,0E0,0E0,0E0,0E0,0E0,0E0,0E0,0E0,0E0,0E0,0E0,0E0,0E0,0E0,0E0,0E0,0E0],"parents":[2147483647,0,0,1,1,2,2,3,3,4,4,5,5,8,8,9,9,10,10,11,11,12,12,13,13,14,14,17,17,18,18,21,21,22,22,24,24,25,25,26,26,27,27,28,28,29,29,30,30,32,32],"right_children":[2,4,6,8,10,12,-1,-1,14,16,18,20,22,24,26,-1,-1,28,30,-1,-1,32,34,-1,36,38,40,42,44,46,48,-1,50,-1,-1,-1,-1,-1,-1,-1,-1,-1,-1,-1,-1,-1,-1,-1,-1,-1,-1],"split_conditions":[8.57E2,3.5E-3,5E1,1.55E0,3.8E-3,6E-3,7.997498E-1,1.8801805E-1,1.15E5,2.54E2,5.1E-3,4.57E2,4.8E4,2.02E0,3.65E0,2.0428506E-1,1.067228E0,3.11E0,5.8E-3,3.6161043E-2,6.593354E-1,8.8E2,1.111E3,1.1366444E-1,5.7E0,3.4E1,1.88E2,9.4E4,4.5E-3,2.77E2,2.66E1,2.0722963E-1,3.01E2,2.9291993E-1,-3.233643E-2,-4.0395528E-1,2.6238443E-2,5.595409E-2,-1.7323667E-1,-8.70761E-2,-3.3422643E-1,3.3846572E-1,-3.5741928E-1,7.910685E-1,3.6564387E-2,-1.3217814E0,6.540222E-1,3.6977655E-1,-1.146523E-2,-2.0773317E-1,-2.8236695E-2],"split_indices":[1,3,2,5,3,3,0,0,4,0,3,0,4,5,5,0,0,5,3,0,0,1,1,0,5,2,1,4,3,1,2,0,0,0,0,0,0,0,0,0,0,0,0,0,0,0,0,0,0,0,0],"split_type":[0,0,0,0,0,0,0,0,0,0,0,0,0,0,0,0,0,0,0,0,0,0,0,0,0,0,0,0,0,0,0,0,0,0,0,0,0,0,0,0,0,0,0,0,0,0,0,0,0,0,0],"sum_hessian":[2.6E2,2.48E2,1.2E1,2.3E1,2.25E2,1.1E1,1E0,2E0,2.1E1,2E0,2.23E2,2E0,9E0,1E1,1.1E1,1E0,1E0,2.7E1,1.96E2,1E0,1E0,6E0,3E0,1E0,9E0,9E0,2E0,1.8E1,9E0,7E0,1.89E2,1E0,5E0,2E0,1E0,8E0,1E0,6E0,3E0,1E0,1E0,8E0,1E1,5E0,4E0,5E0,2E0,1.1E1,1.78E2,1E0,4E0],"tree_param":{"num_deleted":"0","num_feature":"6","num_nodes":"51","size_leaf_vector":"1"}},{"base_weights":[3.5453726E-2,-2.6238024E-2,5.298925E-1,8.615621E-3,-2.7012227E0,-2.6795524E-3,9.6277475E-1,-2.7703179E-2,1.0244651E0,-1.0839363E0,-1.3161393E-1,5.4010636E-1,-1.4946709E0,5.645468E-1,6.059312E-1,2.3897424E-2,-1.029051E0,-1.8693924E-1,1.3488547E0,7.5458336E-1,-2.3874283E-2,-2.124171E0,5.9074406E-2,6.7977905E-1,2.7877045E-1,-1.4945491E-2,2.066887E0,-6.5994567E-1,-5.24456E-1,6.2687993E-1,2.7089596E-1,3.286329E-1,5.6043553E-1,4.4609837E-2,-8.123932E-2,-9.184227E-2,-8.640347E-1,-1.572693E-1,3.9942792E-1,8.867634E-3,-4.6213037E-1,-5.1539615E-2,8.611145E-1,-2.0199324E-1,9.995728E-2,-9.935799E-2,3.1157458E-1,-5.002041E-2,2.2255269E-1,2.4940033E-1,6.332347E-2],"categories":[],"categories_nodes":[],"categories_segments":[],"categories_sizes":[],"default_left":[0,0,0,0,0,0,0,0,0,0,0,0,0,0,0,0,0,0,0,0,0,0,0,0,0,0,0,0,0,0,0,0,0,0,0,0,0,0,0,0,0,0,0,0,0,0,0,0,0,0,0],"id":33,"left_children":[1,3,5,7,9,11,13,15,17,-1,-1,19,21,-1,23,25,27,-1,29,31,33,35,-1,-1,37,39,41,-1,43,-1,45,47,-1,-1,-1,-1,-1,-1,49,-1,-1,-1,-1,-1,-1,-1,-1,-1,-1,-1,-1],"loss_changes":[7.9751325E0,2.1746557E1,6.6882687E0,8.550995E0,4.604412E0,1.2144927E1,4.107045E0,1.1598706E1,5.1162157E0,0E0,0E0,1.3485847E0,4.6776943E0,0E0,6.42845E0,1.7013002E1,5.3446913E0,0E0,5.023383E0,3.180561E0,2.1071745E-1,3.2412672E0,0E0,0E0,1.37205E0,1.4370488E1,7.688217E0,0E0,1.3733242E0,0E0,2.192833E0,1.5565243E0,0E0,0E0,0E0,0E0,0E0,0E0,7.193675E-1,0E0,0E0,0E0,0E0,0E0,0E0,0E0,0E0,0E0,0E0,0E0,0E0],"parents":[2147483647,0,0,1,1,2,2,3,3,4,4,5,5,6,6,7,7,8,8,11,11,12,12,14,14,15,15,16,16,18,18,19,19,20,20,21,21,24,24,25,25,26,26,28,28,30,30,31,31,38,38],"right_children":[2,4,6,8,10,12,14,16,18,-1,-1,20,22,-1,24,26,28,-1,30,32,34,36,-1,-1,38,40,42,-1,44,-1,46,48,-1,-1,-1,-1,-1,-1,50,-1,-1,-1,-1,-1,-1,-1,-1,-1,-1,-1,-1],"split_conditions":[4.42E2,4.39E2,9.2E-3,2.56E-2,2.54E2,6.6E-3,5.01E2,2.27E-2,8E1,-1.0839363E0,-1.3161393E-1,3.11E0,5.94E2,5.645468E-1,1.12E0,2.11E-2,1.59E2,-1.8693924E-1,3.65E-2,3.1E0,4.57E2,2.54E2,5.9074406E-2,6.7977905E-1,5.05E2,6.29E0,1.54E2,-6.5994567E-1,4.57E2,6.2687993E-1,5.15E4,3.71E1,5.6043553E-1,4.4609837E-2,-8.123932E-2,-9.184227E-2,-8.640347E-1,-1.572693E-1,3.8E4,8.867634E-3,-4.6213037E-1,-5.1539615E-2,8.611145E-1,-2.0199324E-1,9.995728E-2,-9.935799E-2,3.1157458E-1,-5.002041E-2,2.2255269E-1,2.4940033E-1,6.332347E-2],"split_indices":[1,1,3,3,0,3,1,3,1,0,0,5,1,0,5,3,0,0,3,5,0,0,0,0,1,5,1,0,0,0,4,2,0,0,0,0,0,0,4,0,0,0,0,0,0,0,0,0,0,0,0],"split_type":[0,0,0,0,0,0,0,0,0,0,0,0,0,0,0,0,0,0,0,0,0,0,0,0,0,0,0,0,0,0,0,0,0,0,0,0,0,0,0,0,0,0,0,0,0,0,0,0,0,0,0],"sum_hessian":[2.6E2,2.32E2,2.8E1,2.3E2,2E0,1.3E1,1.5E1,2.23E2,7E0,1E0,1E0,1E1,3E0,3E0,1.2E1,2.13E2,1E1,1E0,6E0,7E0,3E0,2E0,1E0,1E0,1.1E1,2.1E2,3E0,2E0,8E0,3E0,3E0,6E0,1E0,2E0,1E0,1E0,1E0,1E0,1E1,2.05E2,5E0,1E0,2E0,7E0,1E0,2E0,1E0,3E0,3E0,2E0,8E0],"tree_param":{"num_deleted":"0","num_feature":"6","num_nodes":"51","size_leaf_vector":"1"}},{"base_weights":[2.5699912E-2,1.2199831E-2,5.3035814E-1,-9.222589E-2,2.526211E-1,2.6177323E-1,-4.0513E-1,-3.6453635E-1,5.9860045E-1,1.6114299E0,-4.606169E-2,-2.9042118E0,-1.7848796E-1,2.725535E-1,-1.4318246E0,9.7734493E-1,-3.755427E-1,2.3854932E-1,3.859806E0,4.4158906E-2,-1.5682964E0,-7.675266E-2,-3.2460015E0,-7.2555476E-1,2.1711634E-1,-8.1536865E-1,6.17024E-1,9.0853505E-2,-1.8509562E0,-9.210745E-2,1.4333482E0,-9.525474E-1,1.1496565E-1,-1.3415523E-1,4.6511367E-1,-2.9144862E-1,1.9554993E0,-6.372129E-2,2.1510033E-1,-9.2134553E-1,-1.3088227E-2,-1.3994808E-1,-1.0894512E0,-1.8954998E-2,-7.7216303E-1,8.111864E-3,6.109337E-1,-3.205067E-1,2.9486848E-2,9.0581363E-1,6.89272E-2,-6.372508E-1,5.02121E-2,8.6280696E-2,-2.770283E-1,7.338684E-1,1.942227E-1,3.04202E-1,-8.042894E-1,1.9631867E-1,-3.546078E-1],"categories":[],"categories_nodes":[],"categories_segments":[],"categories_sizes":[],"default_left":[0,0,0,0,0,0,0,0,0,0,0,0,0,0,0,0,0,0,0,0,0,0,0,0,0,0,0,0,0,0,0,0,0,0,0,0,0,0,0,0,0,0,0,0,0,0,0,0,0,0,0,0,0,0,0,0,0,0,0,0,0],"id":34,"left_children":[1,3,-1,5,7,9,11,13,15,17,19,21,23,25,27,29,31,33,35,37,39,-1,41,43,45,47,49,-1,51,53,55,57,59,-1,-1,-1,-1,-1,-1,-1,-1,-1,-1,-1,-1,-1,-1,-1,-1,-1,-1,-1,-1,-1,-1,-1,-1,-1,-1,-1,-1],"loss_changes":[6.1169715E0,6.550901E0,0E0,2.0265789E1,1.7086586E1,3.580477E1,5.442215E1,2.0109045E1,1.9183558E1,4.8467278E1,9.820176E0,6.4110184E0,1.9635508E1,7.6234865E0,8.558153E0,1.817595E1,4.3548937E0,1.0588523E1,8.3397316E1,1.1890899E1,9.031441E0,0E0,5.806473E0,4.6359844E1,1.8272985E1,1.2607257E0,1.3261555E1,0E0,5.3184357E0,4.0535045E0,1.9113903E1,2.6511696E1,7.070236E0,0E0,0E0,0E0,0E0,0E0,0E0,0E0,0E0,0E0,0E0,0E0,0E0,0E0,0E0,0E0,0E0,0E0,0E0,0E0,0E0,0E0,0E0,0E0,0E0,0E0,0E0,0E0,0E0],"parents":[2147483647,0,0,1,1,3,3,4,4,5,5,6,6,7,7,8,8,9,9,10,10,11,11,12,12,13,13,14,14,15,15,16,16,17,17,18,18,19,19,20,20,22,22,23,23,24,24,25,25,26,26,28,28,29,29,30,30,31,31,32,32],"right_children":[2,4,-1,6,8,10,12,14,16,18,20,22,24,26,28,30,32,34,36,38,40,-1,42,44,46,48,50,-1,52,54,56,58,60,-1,-1,-1,-1,-1,-1,-1,-1,-1,-1,-1,-1,-1,-1,-1,-1,-1,-1,-1,-1,-1,-1,-1,-1,-1,-1,-1,-1],"split_conditions":[1.92E5,2.79E2,5.3035814E-1,8E-3,9.2E-3,4.635E4,8.9E-3,6.9E-3,6.1E1,6.1E-3,3.76E2,2.54E0,4.63E4,3.3E-3,2.86E1,4.03E4,7.42E1,2.03E2,3.7E1,6.1E-3,4.41E2,-7.675266E-2,2.56E1,2.91E2,4.93E1,4.05E2,3.8E-3,9.0853505E-2,5.94E2,6.21E0,2.62E2,4.03E4,1.39E-2,-1.3415523E-1,4.6511367E-1,-2.9144862E-1,1.9554993E0,-6.372129E-2,2.1510033E-1,-9.2134553E-1,-1.3088227E-2,-1.3994808E-1,-1.0894512E0,-1.8954998E-2,-7.7216303E-1,8.111864E-3,6.109337E-1,-3.205067E-1,2.9486848E-2,9.0581363E-1,6.89272E-2,-6.372508E-1,5.02121E-2,8.6280696E-2,-2.770283E-1,7.338684E-1,1.942227E-1,3.04202E-1,-8.042894E-1,1.9631867E-1,-3.546078E-1],"split_indices":[4,0,0,3,3,4,3,3,2,3,1,5,4,3,2,4,2,0,2,3,1,0,2,1,2,1,3,0,1,5,1,4,3,0,0,0,0,0,0,0,0,0,0,0,0,0,0,0,0,0,0,0,0,0,0,0,0,0,0,0,0],"split_type":[0,0,0,0,0,0,0,0,0,0,0,0,0,0,0,0,0,0,0,0,0,0,0,0,0,0,0,0,0,0,0,0,0,0,0,0,0,0,0,0,0,0,0,0,0,0,0,0,0,0,0,0,0,0,0,0,0,0,0,0,0],"sum_hessian":[2.6E2,2.59E2,1E0,1.81E2,7.8E1,8.5E1,9.6E1,2.8E1,5E1,1.5E1,7E1,7E0,8.9E1,1.8E1,1E1,3.6E1,1.4E1,1E1,5E0,6.7E1,3E0,1E0,6E0,3.7E1,5.2E1,4E0,1.4E1,2E0,8E0,1.1E1,2.5E1,6E0,8E0,7E0,3E0,2E0,3E0,4.9E1,1.8E1,1E0,2E0,1E0,5E0,2.8E1,9E0,4.8E1,4E0,3E0,1E0,1E0,1.3E1,7E0,1E0,8E0,3E0,1E1,1.5E1,3E0,3E0,6E0,2E0],"tree_param":{"num_deleted":"0","num_feature":"6","num_nodes":"61","size_leaf_vector":"1"}},{"base_weights":[2.0023016E-2,-8.685031E-2,2.0161143E-1,-5.502994E-1,6.0965683E-2,1.462669E0,3.9849993E-2,-3.843267E-1,-7.407563E-1,7.5086504E-1,-2.126315E-1,-8.8802975E-1,3.5695896E0,-5.542344E-1,2.7496523E-1,1.2371979E-1,-6.8584216E-1,3.7071906E-2,4.313652E0,-2.8477542E0,-2.631326E-2,2.181862E-1,-1.3565506E0,2.2536747E0,1.278608E0,-2.1994748E0,-1.3611838E-1,-2.624132E-1,8.381434E-1,-2.136595E-1,5.398189E-1,-1.1345851E0,-1.4255047E-1,-1.9526105E0,3.1998825E-1,1.0617113E0,2.1635067E0,-4.04303E0,-9.144059E-2,6.33216E-1,-2.357648E-1,-9.315377E-1,-1.4312553E-1,-1.4649837E-1,6.832535E-1,4.7437707E-1,-3.5399718E0,7.699414E-1,-3.9957142E-1,1.5404599E0,-5.6420463E-1,-5.214095E-1,1.256405E0,1.1366318E-1,-2.2903931E-1,3.1092262E-1,-1.4033107E-1,-8.649961E-1,-9.648977E-2,7.701945E-2,-2.2586747E-1,-7.6250935E-1,-2.7802277E-2,-1.9088121E-1,3.2308483E-1,4.702702E-1,-6.837845E-2,-1.5232071E0,-1.4100724E-1,4.7432214E-1,4.4600412E-2,-3.735295E-1,-3.3779943E-3,1.4740525E-1,-3.069832E-1,-1.0855122E-1,4.2626955E-2,-7.665005E-2,-2.0090082E0,2.2174437E-2,-2.6413473E-1,-1.0612812E-1,8.7635803E-1,-9.821461E-2,-5.887502E-1,-4.9541655E-1,1.1082665E0,1.856463E0,2.3187785E-1],"categories":[],"categories_nodes":[],"categories_segments":[],"categories_sizes":[],"default_left":[0,0,0,0,0,0,0,0,0,0,0,0,0,0,0,0,0,0,0,0,0,0,0,0,0,0,0,0,0,0,0,0,0,0,0,0,0,0,0,0,0,0,0,0,0,0,0,0,0,0,0,0,0,0,0,0,0,0,0,0,0,0,0,0,0,0,0,0,0,0,0,0,0,0,0,0,0,0,0,0,0,0,0,0,0,0,0,0,0],"id":35,"left_children":[1,3,5,7,9,11,13,15,-1,17,19,21,23,25,27,29,31,33,35,37,39,-1,41,-1,43,45,47,49,51,53,55,57,59,61,63,65,-1,67,-1,69,71,-1,73,75,-1,-1,77,-1,79,81,83,85,87,-1,-1,-1,-1,-1,-1,-1,-1,-1,-1,-1,-1,-1,-1,-1,-1,-1,-1,-1,-1,-1,-1,-1,-1,-1,-1,-1,-1,-1,-1,-1,-1,-1,-1,-1,-1],"loss_changes":[5.082726E0,1.1336906E1,1.9728792E1,1.1790348E1,2.3942726E1,5.7649994E1,1.2304406E1,5.9058394E0,0E0,9.1391426E1,4.460346E1,5.52746E0,4.459014E1,1.6898144E1,1.928625E1,2.2210858E0,5.6894236E0,1.8075136E1,4.888874E1,1.7004848E1,1.2029282E1,0E0,1.01644E1,0E0,7.451371E0,3.0937906E1,1.5977601E1,1.8824158E1,1.8283215E1,3.2212756E0,3.98731E0,1.7553928E1,3.1176693E0,4.147111E0,2.0953054E1,2.9667797E0,0E0,1.2396149E1,0E0,9.40988E0,1.4941595E1,0E0,2.7365298E0,2.3784633E-1,0E0,0E0,3.9761642E1,0E0,4.6188574E0,1.4110469E1,8.960809E0,4.420919E1,5.2443127E1,0E0,0E0,0E0,0E0,0E0,0E0,0E0,0E0,0E0,0E0,0E0,0E0,0E0,0E0,0E0,0E0,0E0,0E0,0E0,0E0,0E0,0E0,0E0,0E0,0E0,0E0,0E0,0E0,0E0,0E0,0E0,0E0,0E0,0E0,0E0,0E0],"parents":[2147483647,0,0,1,1,2,2,3,3,4,4,5,5,6,6,7,7,9,9,10,10,11,11,12,12,13,13,14,14,15,15,16,16,17,17,18,18,19,19,20,20,22,22,24,24,25,25,26,26,27,27,28,28,29,29,30,30,31,31,32,32,33,33,34,34,35,35,37,37,39,39,40,40,42,42,43,43,46,46,48,48,49,49,50,50,51,51,52,52],"right_children":[2,4,6,8,10,12,14,16,-1,18,20,22,24,26,28,30,32,34,36,38,40,-1,42,-1,44,46,48,50,52,54,56,58,60,62,64,66,-1,68,-1,70,72,-1,74,76,-1,-1,78,-1,80,82,84,86,88,-1,-1,-1,-1,-1,-1,-1,-1,-1,-1,-1,-1,-1,-1,-1,-1,-1,-1,-1,-1,-1,-1,-1,-1,-1,-1,-1,-1,-1,-1,-1,-1,-1,-1,-1,-1],"split_conditions":[7.12E4,3.17E1,1E5,5.19E4,3.02E0,1.78E0,4.4E-3,6.1E-3,-7.407563E-1,2.61E0,3.09E0,1.41E0,2.66E1,2.66E1,1.52E2,3.1E0,1.52E2,2.23E2,3.7E1,4.47E1,3.33E0,2.181862E-1,3.9E-3,2.2536747E0,1.05E-2,1.78E0,2.06E2,4.5E-3,5.5E-3,2.02E0,3.54E0,4.63E4,2.86E1,1.59E2,4.06E1,1.52E2,2.1635067E0,2.54E2,-9.144059E-2,2.14E2,9.1E-3,-9.315377E-1,2.53E2,1.52E2,6.832535E-1,4.7437707E-1,2.41E1,7.699414E-1,3.47E1,2.54E0,1.7E-2,2.53E2,2.66E1,1.1366318E-1,-2.2903931E-1,3.1092262E-1,-1.4033107E-1,-8.649961E-1,-9.648977E-2,7.701945E-2,-2.2586747E-1,-7.6250935E-1,-2.7802277E-2,-1.9088121E-1,3.2308483E-1,4.702702E-1,-6.837845E-2,-1.5232071E0,-1.4100724E-1,4.7432214E-1,4.4600412E-2,-3.735295E-1,-3.3779943E-3,1.4740525E-1,-3.069832E-1,-1.0855122E-1,4.2626955E-2,-7.665005E-2,-2.0090082E0,2.2174437E-2,-2.6413473E-1,-1.0612812E-1,8.7635803E-1,-9.821461E-2,-5.887502E-1,-4.9541655E-1,1.1082665E0,1.856463E0,2.3187785E-1],"split_indices":[4,2,4,4,5,5,3,3,0,5,5,5,2,2,0,5,0,1,2,2,5,0,3,0,3,5,1,3,3,5,5,4,2,0,2,0,0,0,0,1,3,0,1,0,0,0,2,0,2,5,3,1,2,0,0,0,0,0,0,0,0,0,0,0,0,0,0,0,0,0,0,0,0,0,0,0,0,0,0,0,0,0,0,0,0,0,0,0,0],"split_type":[0,0,0,0,0,0,0,0,0,0,0,0,0,0,0,0,0,0,0,0,0,0,0,0,0,0,0,0,0,0,0,0,0,0,0,0,0,0,0,0,0,0,0,0,0,0,0,0,0,0,0,0,0,0,0,0,0,0,0,0,0,0,0,0,0,0,0,0,0,0,0,0,0,0,0,0,0,0,0,0,0,0,0,0,0,0,0,0,0],"sum_hessian":[2.6E2,1.64E2,9.6E1,3.9E1,1.25E2,1E1,8.6E1,3.7E1,2E0,3.5E1,9E1,5E0,5E0,2.4E1,6.2E1,1.4E1,2.3E1,3E1,5E0,5E0,8.5E1,1E0,4E0,1E0,4E0,4E0,2E1,3.2E1,3E1,8E0,6E0,1.2E1,1.1E1,3E0,2.7E1,3E0,2E0,3E0,2E0,2E1,6.5E1,1E0,3E0,2E0,2E0,1E0,3E0,1E0,1.9E1,4E0,2.8E1,7E0,2.3E1,4E0,4E0,4E0,2E0,3E0,9E0,7E0,4E0,2E0,1E0,1.2E1,1.5E1,2E0,1E0,2E0,1E0,6E0,1.4E1,1.1E1,5.4E1,2E0,1E0,1E0,1E0,2E0,1E0,1E1,9E0,2E0,2E0,2.5E1,3E0,6E0,1E0,1E0,2.2E1],"tree_param":{"num_deleted":"0","num_feature":"6","num_nodes":"89","size_leaf_vector":"1"}},{"base_weights":[2.2434056E-2,6.509911E-1,-2.5977066E-3,3.927558E-1,1.8188095E-1,-1.1566222E-1,1.7926478E-1,-6.11969E-2,1.5791512E-1,1.5295292E-2,-4.3903062E-1,1.2055106E0,4.7449045E-2,1.5888214E-2,-4.648667E-2,-1.20619886E-1,1.4136921E0,-1.0914036E0,-1.2391263E-1,-7.671089E-1,2.9772117E0,-1.9945957E-1,5.2322406E-1,-7.239141E-1,8.202459E-2,3.059826E0,2.7108818E-1,-3.8297874E-1,4.8346394E-1,1.8545838E-1,-1.1678085E0,1.9156232E0,1.0184898E0,4.3697408E-1,-6.0052943E-1,-4.1171858E-1,8.819177E-1,-4.1091885E-2,-3.2465744E-1,6.0424536E-1,-4.1050527E-2,1.1098924E0,1.7105713E-1,-1.4447708E-1,2.005433E-1,-6.2651557E-1,-1.2085808E-2,3.208785E-1,-5.1519994E-2,-7.9180646E-1,-4.2024996E-2,-3.7357714E-2,5.4660267E-1,-1.5755911E-1,2.6722464E-1,-1.7076571E0,-8.772582E-2,3.724852E-2,-2.1010572E-1,6.13144E-1,9.5540576E-2],"categories":[],"categories_nodes":[],"categories_segments":[],"categories_sizes":[],"default_left":[0,0,0,0,0,0,0,0,0,0,0,0,0,0,0,0,0,0,0,0,0,0,0,0,0,0,0,0,0,0,0,0,0,0,0,0,0,0,0,0,0,0,0,0,0,0,0,0,0,0,0,0,0,0,0,0,0,0,0,0,0],"id":36,"left_children":[1,3,5,-1,7,9,11,13,-1,15,17,19,21,-1,-1,23,25,-1,27,29,31,33,35,37,39,41,43,45,47,-1,49,-1,51,53,55,57,59,-1,-1,-1,-1,-1,-1,-1,-1,-1,-1,-1,-1,-1,-1,-1,-1,